{"epoch": 131, "population": [{"id": "Player 8653", "weights_input_hidden": [[-0.46622380043466016, -0.9906617809201327, 1.0330486130417043, 0.2019316078991108, 1.252739489679839, 0.2333214366766371, 1.3958253941407148, 0.09743089902043815, -1.1264648932002463, 1.3487969910153157], [2.5560013835915276, 2.6260378452804725, -0.8430358854379892, -1.436752879704038, -0.091755226495988, -0.05581224188753954, -0.23030358053385533, -1.3617855954396427, 1.706811273356568, -1.1096653016277342], [-0.702982741458736, -0.2242613119857922, -0.04952274119578026, 0.2810241165780899, -0.6840655403021124, -0.09374576333896502, 0.18807473991109105, 1.084701115020838, 0.4078312847460411, 0.6058721451262374], [1.7544270881528854, 0.9385698800950733, -0.41900535032191333, -0.18163317860436792, 1.5114095044260925, 0.6437508213866677, 0.00105969021840506, 1.5114388233834668, 1.2079912735252318, -0.11279481356766775], [-0.7013780623599634, 0.04274722395666077, 1.3298812251312104, 0.597847098534998, -0.04666619464671873, 2.598446849352539, -1.5235521682714295, -1.92066421186702, -0.869142226881601, 2.766981443287153]], "weights_hidden_output": [[1.2499463551765935, -0.9949852327509163, -1.2006428610437059], [-0.3450991544956926, -0.8845077020588166, -0.5252128363529411], [-0.06600082100656346, -0.29147763325034537, -0.4005616377937617], [0.2783287335262348, 0.8122927606986527, 0.918150042967462], [-0.9271256606901802, -0.790724884279309, 0.9474180404871081], [0.9502767225386242, -0.0731149730837603, 0.6821101729138668], [-0.7316638005812806, -0.09656379185458135, 1.0009791223929896], [1.1038754580306238, -0.31068210850471734, 0.026256769742169082], [0.2453452831932583, 2.750258862415533, -0.4361517078124077], [-0.8989056074987146, -0.20751893831838245, 1.6405333162071558]], "bias_hidden": [0.1061853593265526, 1.0847194840568148, -0.3543639971337439, -2.4079384784098674, 0.13517565244417848, -0.07315257264136968, 0.30880597600947063, -1.518663557621957, -0.03683500892720381, -1.1039377473386978], "bias_output": [1.578518108594739, -0.00948339621956542, 0.6145028253647847], "current_score": 363, "best_score": 3041}, {"id": "Player 8706", "weights_input_hidden": [[0.7191880545784336, -1.095941527630038, 0.5601461496629032, 0.2019316078991108, 0.9847708920451563, 0.7199295235935025, 1.5516926505603663, 0.09743089902043815, -1.2734162010967003, 1.3487969910153157], [2.353522434229982, 2.590530203544281, -0.8430358854379892, -1.436752879704038, -0.0933014611184798, -0.05581224188753954, -0.23030358053385533, -1.3617855954396427, -0.15392120130628764, -1.243429048994944], [-0.6436533032033521, -0.2956797080680193, -0.04952274119578026, 0.295445135068156, -0.6840655403021124, -0.09374576333896502, 0.18990688597653857, 0.9937606954925995, 0.4078312847460411, 0.5191760390469121], [1.6795752340141006, -0.6260157179355571, -0.41900535032191333, -0.18163317860436792, 1.5114095044260925, 0.6437508213866677, 0.42963204483495876, 1.5114388233834668, 1.3166803920232113, -0.11279481356766775], [-0.8366834307387266, 0.11104827174527457, 1.3298812251312104, 0.4398834111568669, -0.04666619464671873, 2.598446849352539, -1.4155515277899964, -1.1934175199227806, 1.3201337194974867, 2.895522954191282]], "weights_hidden_output": [[1.2499463551765935, -0.8896201852762371, -1.099519067331202], [-0.3450991544956926, -0.16544941312015835, -0.5997257314375668], [-0.06600082100656346, -0.3176503512082513, -0.4005616377937617], [0.2783287335262348, 0.7368360861733584, -0.4651846271895411], [-0.9271256606901802, -0.4325081706126171, 0.645459710335655], [0.8731819790608237, -0.0731149730837603, 2.2540284773925134], [0.9968082145284775, -0.08463806403858311, 1.1045154479671813], [0.3664017432384805, -0.31068210850471734, -0.12976514627451644], [0.2453452831932583, 2.750258862415533, -0.6085121167250104], [-0.8989056074987146, -0.20751893831838245, 1.6405333162071558]], "bias_hidden": [0.2283357738089792, 1.0847194840568148, -0.3543639971337439, -2.4079384784098674, 0.13517565244417848, -0.11313309957858553, 0.30880597600947063, -1.518663557621957, -0.03683500892720381, -1.0976409286028195], "bias_output": [1.578518108594739, -0.05628791762282423, 0.6149328230380301], "current_score": 363, "best_score": 475}, {"id": "Player 8555", "weights_input_hidden": [[-0.4449177628814078, 0.4708543376201735, 0.41666195123060473, 0.2019316078991108, 1.1619913958989827, 0.6277307069449158, 1.3958253941407148, 0.09743089902043815, -1.357060274368535, 1.3487969910153157], [2.353522434229982, 2.6260378452804725, -0.8430358854379892, -0.4920360382337663, -0.14122877475648832, -0.054909287144651035, -0.23030358053385533, 0.1758755259621973, 1.5721464718884286, -1.243429048994944], [-0.6703212980250259, -0.2675514980572742, -0.04952274119578026, 0.2196850678109169, -0.6840655403021124, 0.008648635479499761, 0.18990688597653857, 0.9937606954925995, 0.4078312847460411, 0.5191760390469121], [1.7632543353172108, -0.6260157179355571, -1.1555915218043626, -0.22113114507357784, 1.284525471525472, -0.34549449951157796, -0.09097726919736222, 1.5114388233834668, 1.2079912735252318, -0.11279481356766775], [-0.8202818821607278, 0.04274722395666077, 1.3298812251312104, 0.597847098534998, -0.04666619464671873, 2.2524989275462524, -1.4155515277899964, -1.92066421186702, -0.7513987354038407, 2.766981443287153]], "weights_hidden_output": [[1.2499463551765935, -0.8896201852762371, -1.2006428610437059], [0.9684101458651269, -0.7663329932905071, -0.5252128363529411], [-0.06600082100656346, -0.3176503512082513, -0.4921282132616055], [0.2947734201223065, 0.2543941046438194, 0.918150042967462], [-0.9271256606901802, -0.34833798037624547, 1.014553859652603], [0.8731819790608237, -0.0731149730837603, 2.316615831762046], [-0.6141322480639746, -0.03442156325246673, 1.1121652748096171], [1.8445112536080035, -0.31068210850471734, -0.012364429324220815], [0.2453452831932583, 2.3269302512358583, -0.6085121167250104], [-0.8989056074987146, -0.20751893831838245, 1.6405333162071558]], "bias_hidden": [0.22050380794121455, 1.0190923026381025, 0.25137084986746544, -2.4079384784098674, 0.13517565244417848, 0.030754061712885798, 0.30880597600947063, -1.4546312702908744, -0.03683500892720381, -1.1480159596966268], "bias_output": [1.578518108594739, -1.4376262232448798, 0.48976272309037905], "current_score": 222, "best_score": 478}, {"id": "Player 8674", "weights_input_hidden": [[-0.609978513738993, 0.4708543376201735, 0.5601461496629032, 0.2019316078991108, 1.1619913958989827, 0.2333214366766371, 1.5516926505603663, 0.09743089902043815, -1.2734162010967003, 1.6587696482460785], [2.353522434229982, 1.6360175055688462, -0.8430358854379892, -0.4920360382337663, -0.14122877475648832, -0.040907553136587387, -0.23030358053385533, -1.3617855954396427, 1.6190870454076656, -1.243429048994944], [-0.6703212980250259, -0.2675514980572742, -0.04952274119578026, 0.295445135068156, -0.6840655403021124, -0.09374576333896502, 0.18990688597653857, 0.9937606954925995, 0.4078312847460411, 0.5191760390469121], [1.6795752340141006, -0.6260157179355571, -0.4454714503257895, -0.18163317860436792, 1.339078717080644, 0.6437508213866677, 1.2702051430955201, 1.53503350216688, 1.2079912735252318, -0.11279481356766775], [-0.7013780623599634, 0.04274722395666077, 1.3298812251312104, 0.597847098534998, -0.04666619464671873, 2.598446849352539, -1.4155515277899964, -1.92066421186702, -0.869142226881601, 2.766981443287153]], "weights_hidden_output": [[1.38687688336165, -0.8896201852762371, -1.2006428610437059], [-0.3450991544956926, -0.8845077020588166, -0.5284823446319564], [-0.11964758433984868, -0.29147763325034537, -0.4921282132616055], [0.2783287335262348, 0.7368360861733584, 0.6975554428900681], [-0.9271256606901802, -0.3507122773310683, 0.9474180404871081], [0.9502767225386242, -0.0731149730837603, 0.6821101729138668], [-0.6141322480639746, -0.03442156325246673, 1.1045154479671813], [1.8445112536080035, -0.31068210850471734, -0.012364429324220815], [0.2453452831932583, 2.750258862415533, -0.6085121167250104], [-0.8989056074987146, -0.20751893831838245, 1.6405333162071558]], "bias_hidden": [0.2283357738089792, 1.0847194840568148, 0.25137084986746544, -2.4079384784098674, 0.13517565244417848, -0.07315257264136968, 0.39732392111967935, -1.518663557621957, -0.03683500892720381, -1.1039377473386978], "bias_output": [1.8769234287633054, -0.00948339621956542, 0.48976272309037905], "current_score": 363, "best_score": 326}, {"id": "Player 8675", "weights_input_hidden": [[-0.609978513738993, -0.9906617809201327, 0.5601461496629032, 0.2019316078991108, 1.1456808420615323, 0.2333214366766371, 1.3958253941407148, -0.004757556879493502, -1.2734162010967003, 1.6587696482460785], [2.5560013835915276, 2.6260378452804725, -0.8430358854379892, -0.4920360382337663, -0.091755226495988, -0.05581224188753954, -0.23030358053385533, -1.3617855954396427, 1.6190870454076656, -1.1096653016277342], [-0.6703212980250259, -0.29608884860053125, 0.5989286371449625, 0.295445135068156, -0.6840655403021124, -0.09374576333896502, 0.18990688597653857, 0.9937606954925995, 0.4078312847460411, 0.6058721451262374], [1.7544270881528854, -0.6260157179355571, -0.41900535032191333, -0.18163317860436792, 1.5114095044260925, 0.6437508213866677, 1.2702051430955201, 1.5114388233834668, 1.2079912735252318, -0.11279481356766775], [-0.7013780623599634, 0.11104827174527457, 1.3298812251312104, 0.597847098534998, -0.04666619464671873, 2.598446849352539, -1.4155515277899964, -1.3348115126605207, -0.869142226881601, 2.766981443287153]], "weights_hidden_output": [[1.38687688336165, -0.8896201852762371, -1.2006428610437059], [-0.3450991544956926, -0.8845077020588166, -0.5639791923702826], [1.082621035023117, -0.29147763325034537, 1.1916955381829142], [0.2783287335262348, 0.7368360861733584, -0.4651846271895411], [-0.9271256606901802, 1.0310296653399438, 0.9474180404871081], [0.9502767225386242, -0.0731149730837603, 0.6821101729138668], [-0.7316638005812806, -0.08838047401774465, 1.0009791223929896], [0.3664017432384805, -0.31068210850471734, -0.012364429324220815], [0.2453452831932583, 2.3269302512358583, -0.6085121167250104], [-0.8989056074987146, -0.20751893831838245, 1.6405333162071558]], "bias_hidden": [0.2283357738089792, 1.0847194840568148, -0.3543639971337439, -2.4079384784098674, 0.13517565244417848, 1.1026280153450432, 0.30880597600947063, -1.739850302833761, -0.03683500892720381, -1.2623813999513178], "bias_output": [1.578518108594739, -0.04396775291370779, 0.48976272309037905], "current_score": 363, "best_score": 326}, {"id": "Player 8690", "weights_input_hidden": [[-0.46622380043466016, -0.9906617809201327, 0.44448142228130827, 0.2019316078991108, 1.2527167965100732, 0.7199295235935025, 1.3958253941407148, -0.004757556879493502, -1.2734162010967003, 1.3487969910153157], [2.5560013835915276, 2.6260378452804725, -0.8430358854379892, -0.4920360382337663, -0.091755226495988, -0.05581224188753954, -0.07251305020373683, -1.3617855954396427, 0.1935182605334899, -1.243429048994944], [-0.6703212980250259, -0.2675514980572742, 0.6369849099888579, 0.2996120684515014, -0.6840655403021124, -0.16150440191628235, -0.6335818412136526, 0.9937606954925995, 0.4078312847460411, 0.6058721451262374], [1.9117385726753822, -0.6260157179355571, 1.016847933850129, -0.18163317860436792, 1.5114095044260925, 0.5336227426815177, 0.6254738091050421, 1.5114388233834668, 1.3166803920232113, -0.11279481356766775], [-0.8202818821607278, 0.04274722395666077, 1.3298812251312104, 0.5458577518839257, -0.04666619464671873, 2.787902524332814, -1.5235521682714295, -1.1934175199227806, -0.869142226881601, 2.895522954191282]], "weights_hidden_output": [[1.2499463551765935, -0.8896201852762371, -0.09964783323146573], [-0.3450991544956926, -0.16544941312015835, -0.5997257314375668], [1.082621035023117, -0.34524991453349035, 1.1916955381829142], [0.2783287335262348, 0.7736128778137434, -0.5532623338777617], [-1.0469054750536395, -0.13547384091519507, 0.9320813571190512], [0.8731819790608237, -0.0731149730837603, 0.6821101729138668], [-0.6141322480639746, -0.08838047401774465, 0.9372195846823799], [0.3664017432384805, -0.31068210850471734, -0.012364429324220815], [0.11517784367832751, 2.750258862415533, -0.6085121167250104], [-0.8368022905493034, -0.20751893831838245, 1.6405333162071558]], "bias_hidden": [0.2283357738089792, 1.0847194840568148, -0.3543639971337439, -2.3428370801244287, 0.13517565244417848, -0.026143758107746523, 0.30880597600947063, -1.518663557621957, -0.03683500892720381, -1.1039377473386978], "bias_output": [1.578518108594739, -0.07513391930126205, 0.48976272309037905], "current_score": 222, "best_score": 326}, {"id": "Player 8703", "weights_input_hidden": [[0.7191880545784336, -0.8599336962452421, 0.4577405104413002, 0.2019316078991108, 1.252739489679839, 0.6259880493655395, 1.4814776400550016, -0.004757556879493502, -1.2734162010967003, 1.3487969910153157], [2.24947702684825, 2.8093477698636513, -0.8430358854379892, -0.4920360382337663, -0.091755226495988, -0.05581224188753954, -0.23030358053385533, -1.3617855954396427, 0.1935182605334899, -1.243429048994944], [-0.6703212980250259, -0.2956797080680193, -0.04952274119578026, 0.5559955843405522, -0.6840655403021124, 0.23464139893953093, 0.18990688597653857, 0.9937606954925995, 1.5105381839376735, 0.5191760390469121], [1.9117385726753822, -0.6260157179355571, 0.0518671544569423, -0.18163317860436792, 1.5114095044260925, 0.31905601817963475, 0.6254738091050421, 1.5114388233834668, 1.3166803920232113, -0.11279481356766775], [-0.8202818821607278, 0.04274722395666077, 1.3298812251312104, 0.597847098534998, -0.052175231635878457, 2.598446849352539, 1.955323170603792, -1.92066421186702, -0.869142226881601, 2.895522954191282]], "weights_hidden_output": [[1.2499463551765935, -0.8896201852762371, -1.0888155389166227], [0.9606562758626401, -0.16544941312015835, -0.5997257314375668], [-0.06600082100656346, -0.45210124225910164, 1.1916955381829142], [-1.012523278068614, 0.7736128778137434, -0.4651846271895411], [-0.9271256606901802, -0.3507122773310683, 1.014553859652603], [0.8731819790608237, -0.0731149730837603, 0.3487484439906954], [-0.5346838870931964, -0.08463806403858311, 1.0009791223929896], [0.3664017432384805, -0.31068210850471734, -0.011395601438185589], [0.11517784367832751, 2.3269302512358583, -0.6085121167250104], [-0.8368022905493034, -0.20751893831838245, 1.6405333162071558]], "bias_hidden": [0.2283357738089792, 1.0847194840568148, -0.642185817819046, -2.4079384784098674, 0.13517565244417848, -0.026143758107746523, 0.30880597600947063, -1.6160398935549931, -0.03683500892720381, -1.1039377473386978], "bias_output": [1.578518108594739, -1.4376262232448798, 0.6149328230380301], "current_score": 117, "best_score": 326}, {"id": "Player 8711", "weights_input_hidden": [[-0.46622380043466016, -0.9906617809201327, 0.44448142228130827, 0.2019316078991108, 1.1456808420615323, 0.22708756385736906, 1.3958253941407148, -0.004757556879493502, -1.2734162010967003, 1.3487969910153157], [1.1066655003148198, 2.6260378452804725, -0.8430358854379892, -0.4920360382337663, -0.091755226495988, -0.05581224188753954, -0.23030358053385533, -0.038491894967352176, 0.1935182605334899, -0.1266336925056638], [-0.7774326925543933, -0.2956797080680193, 0.6369849099888579, 0.295445135068156, -0.6840655403021124, -0.09374576333896502, 0.18990688597653857, 0.9937606954925995, 0.4078312847460411, 0.6058721451262374], [1.6795752340141006, -0.511918380728222, -0.41900535032191333, -0.18163317860436792, 1.5114095044260925, 0.5336227426815177, 0.6254738091050421, 1.5114388233834668, 1.2079912735252318, -0.11279481356766775], [-0.8202818821607278, 0.04274722395666077, 1.3298812251312104, 0.597847098534998, -0.052175231635878457, 2.787902524332814, -1.5779442588410495, -1.92066421186702, -0.7510502433918982, 2.895522954191282]], "weights_hidden_output": [[1.2499463551765935, -0.8896201852762371, -1.099519067331202], [0.9684101458651269, -0.1627389407350366, -0.5284823446319564], [1.082621035023117, -0.29147763325034537, 0.9248600173003136], [0.2783287335262348, 0.833820379287879, 1.7371785398988095], [-0.9271256606901802, 1.5798526752849384, 1.014553859652603], [0.8731819790608237, -0.833368977647818, 0.6821101729138668], [-0.6141322480639746, -0.08463806403858311, 1.1045154479671813], [0.3664017432384805, -0.31068210850471734, -0.012364429324220815], [0.2453452831932583, 2.3269302512358583, -0.6085121167250104], [-0.8368022905493034, -0.20751893831838245, 1.6405333162071558]], "bias_hidden": [0.2283357738089792, -0.8640264487439873, -0.3543639971337439, -2.4079384784098674, 0.1563499634355541, -0.029535941890855757, 0.30880597600947063, -1.518663557621957, -0.03683500892720381, -1.2807880266667575], "bias_output": [1.578518108594739, -0.04396775291370779, 0.48976272309037905], "current_score": 363, "best_score": 326}, {"id": "Player 8719", "weights_input_hidden": [[-0.46622380043466016, -0.9906617809201327, 0.4577405104413002, 0.2019316078991108, 1.252739489679839, 0.2333214366766371, 1.3958253941407148, -0.004757556879493502, -1.2734162010967003, 1.3487969910153157], [2.5560013835915276, 2.6260378452804725, -0.8430358854379892, -0.4920360382337663, -0.091755226495988, -0.05581224188753954, -0.23030358053385533, -1.3617855954396427, 1.5721464718884286, -1.1096653016277342], [-0.6703212980250259, -0.2956797080680193, 0.6369849099888579, 0.295445135068156, -0.6840655403021124, -0.09374576333896502, -0.023053306474334984, 0.037892964902314114, 0.4078312847460411, 0.5191760390469121], [1.9117385726753822, -0.6260157179355571, -0.41900535032191333, -0.18163317860436792, 1.5114095044260925, 0.31905601817963475, 0.0010398467042225846, 1.5114388233834668, 1.2079912735252318, -0.11279481356766775], [-0.8202818821607278, 0.04274722395666077, 1.3298812251312104, 0.631958833496913, -0.052175231635878457, 2.787902524332814, -1.5235521682714295, -1.92066421186702, -0.869142226881601, 2.895522954191282]], "weights_hidden_output": [[1.2499463551765935, -0.8896201852762371, 1.1306272519028235], [0.840820266286706, -0.1627389407350366, -0.5997257314375668], [1.082621035023117, -0.29147763325034537, 1.1916955381829142], [0.2783287335262348, 0.7736128778137434, -0.4651846271895411], [-0.9271256606901802, -0.13547384091519507, 1.014553859652603], [0.48332926760447914, -0.0731149730837603, 0.6821101729138668], [-0.6141322480639746, -0.08463806403858311, 0.9372195846823799], [0.3664017432384805, -0.31068210850471734, -0.012364429324220815], [0.2453452831932583, 2.3269302512358583, -0.6085121167250104], [-0.8368022905493034, -0.20751893831838245, 1.539476617439927]], "bias_hidden": [0.19596578445849175, 1.0847194840568148, -0.3543639971337439, -2.4079384784098674, 0.13517565244417848, 0.11021471308378179, 0.30880597600947063, -1.518663557621957, -0.03683500892720381, -1.1039377473386978], "bias_output": [1.578518108594739, 0.02057361295791335, 0.6145028253647847], "current_score": 222, "best_score": 326}, {"id": "Player 8720", "weights_input_hidden": [[-0.46622380043466016, -0.9906617809201327, 0.44448142228130827, 0.2019316078991108, 1.1456808420615323, -0.28288293519526686, 1.3958253941407148, 0.4576774241641894, -1.4367937366403258, 1.3487969910153157], [2.353522434229982, 2.6260378452804725, -0.8430358854379892, -0.4920360382337663, -0.091755226495988, -0.05581224188753954, -0.23030358053385533, -0.03800327486175626, -0.8166133695161152, -1.243429048994944], [-0.6703212980250259, -0.2956797080680193, -0.04952274119578026, 0.2308319599691685, -0.7936518495012745, -0.17755073167671898, 0.18990688597653857, 0.9937606954925995, 0.4078312847460411, 0.6058721451262374], [1.7544270881528854, -0.6260157179355571, -1.2519280133471995, -0.18432989064998748, 1.5114095044260925, 0.6437508213866677, 0.8075523336157115, 1.5114388233834668, 1.182007647343174, -0.11279481356766775], [-0.8214766168470534, 0.04274722395666077, 1.3298812251312104, 0.597847098534998, -0.04666619464671873, 2.325773592436251, -1.4155515277899964, -1.92066421186702, 0.14460751418170498, 2.766981443287153]], "weights_hidden_output": [[1.2499463551765935, -0.8896201852762371, -1.2006428610437059], [-0.3450991544956926, -0.8845077020588166, -0.5997257314375668], [-0.05127182600875535, -0.3176503512082513, -0.3108391035625346], [0.2783287335262348, 0.2543941046438194, -0.4651846271895411], [-0.9271256606901802, 1.5798526752849384, 1.014553859652603], [0.8321876233327259, -0.0731149730837603, 0.6821101729138668], [-1.21335910194406, -0.08463806403858311, 1.1045154479671813], [0.3664017432384805, -0.31068210850471734, -0.012364429324220815], [0.2453452831932583, 2.7450566796519764, -0.4361517078124077], [-0.8368022905493034, -0.20751893831838245, 1.6405333162071558]], "bias_hidden": [0.2283357738089792, 1.0847194840568148, -0.3543639971337439, -2.4079384784098674, 0.13517565244417848, 1.1026280153450432, 0.30880597600947063, -1.518663557621957, -0.12914604385804776, -1.254907543720149], "bias_output": [1.578518108594739, -0.04396775291370779, 0.4642029112147759], "current_score": 363, "best_score": 326}, {"id": "Player 8740", "weights_input_hidden": [[-0.46622380043466016, -0.9906617809201327, 1.0330486130417043, 0.2019316078991108, 1.0248498606964662, 0.2333214366766371, 1.3958253941407148, 0.09743089902043815, -1.373739111545642, 1.3487969910153157], [2.353522434229982, 2.6260378452804725, -0.8430358854379892, -0.4920360382337663, -0.091755226495988, -0.05581224188753954, -0.23030358053385533, -1.3617855954396427, 0.1935182605334899, -1.243429048994944], [-0.702982741458736, -0.2242613119857922, 0.6369849099888579, 0.2810241165780899, -0.6840655403021124, -0.09374576333896502, 0.18807473991109105, 0.9937606954925995, 0.4078312847460411, 0.5191760390469121], [1.9117385726753822, 0.8126255126294194, -0.41900535032191333, -0.11016288910398472, 1.5114095044260925, 0.31905601817963475, 0.00105969021840506, 1.5114388233834668, 1.3166803920232113, -0.11279481356766775], [-0.7013780623599634, 0.04274722395666077, 1.3298812251312104, 0.597847098534998, -0.052175231635878457, 2.598446849352539, -1.4155515277899964, -1.1934175199227806, -0.869142226881601, 2.766981443287153]], "weights_hidden_output": [[1.2499463551765935, -0.8896201852762371, -1.2006428610437059], [-0.3450991544956926, -0.8845077020588166, -0.5252128363529411], [1.082621035023117, -0.29147763325034537, 1.1916955381829142], [0.2783287335262348, 0.7736128778137434, 0.918150042967462], [-0.9271256606901802, -0.790724884279309, 0.9474180404871081], [0.8731819790608237, 0.09747632336526119, 0.6821101729138668], [-0.5746448346602561, -0.09656379185458135, 1.0009791223929896], [0.3664017432384805, -0.31068210850471734, -0.012364429324220815], [0.2453452831932583, 2.750258862415533, -0.6085121167250104], [-0.8368022905493034, -0.20751893831838245, 1.6405333162071558]], "bias_hidden": [0.2283357738089792, 1.0847194840568148, -0.3543639971337439, -2.4079384784098674, 0.13517565244417848, -0.026143758107746523, 0.30880597600947063, -1.518663557621957, -0.03683500892720381, -1.1039377473386978], "bias_output": [1.578518108594739, -0.00948339621956542, 0.6145028253647847], "current_score": 47, "best_score": 0}, {"id": "Player 8741", "weights_input_hidden": [[-0.609978513738993, -0.9906617809201327, 1.0330486130417043, 0.2019316078991108, 1.252739489679839, 0.2333214366766371, 1.5516926505603663, 0.09743089902043815, -1.1264648932002463, 1.3487969910153157], [2.5560013835915276, 2.6260378452804725, -0.8430358854379892, -1.436752879704038, -0.14122877475648832, -0.040907553136587387, -0.23030358053385533, -1.3617855954396427, 1.706811273356568, -1.243429048994944], [-0.6703212980250259, -0.11429218710666555, -0.04952274119578026, 0.295445135068156, -0.6840655403021124, -0.13858430538229524, 0.18990688597653857, 1.084701115020838, 0.4078312847460411, 0.5191760390469121], [1.7544270881528854, -0.6260157179355571, -0.41900535032191333, -0.18163317860436792, 1.339078717080644, 0.6437508213866677, 0.00105969021840506, 1.53503350216688, 1.2079912735252318, -0.11279481356766775], [-0.7013780623599634, 0.04274722395666077, 1.3298812251312104, 0.597847098534998, -0.04666619464671873, 2.598446849352539, -1.5235521682714295, -1.92066421186702, -0.869142226881601, 2.766981443287153]], "weights_hidden_output": [[1.2499463551765935, -0.9949852327509163, -1.2006428610437059], [-0.3868588809474487, -0.8845077020588166, -0.5284823446319564], [-0.11964758433984868, -0.29147763325034537, -0.4921282132616055], [0.2783287335262348, 0.8122927606986527, -0.6131970119085184], [-0.9271256606901802, -0.7332695889806072, 0.9474180404871081], [0.9502767225386242, -0.0731149730837603, 0.6821101729138668], [-0.6141322480639746, -0.03442156325246673, 1.0009791223929896], [1.8445112536080035, -0.31068210850471734, 0.026256769742169082], [0.2453452831932583, 2.750258862415533, -0.7129419279307887], [-0.8989056074987146, -0.20751893831838245, 1.6405333162071558]], "bias_hidden": [0.1061853593265526, 1.0847194840568148, 0.25137084986746544, -2.4079384784098674, 0.2559681662250282, -0.07315257264136968, 0.39732392111967935, -1.518663557621957, -0.03683500892720381, -1.1039377473386978], "bias_output": [1.8769234287633054, -0.00948339621956542, 0.48976272309037905], "current_score": 47, "best_score": 0}, {"id": "Player 8742", "weights_input_hidden": [[-0.46622380043466016, -0.9906617809201327, 0.5601461496629032, 0.2019316078991108, 1.1456808420615323, 0.2333214366766371, 1.3958253941407148, -0.004757556879493502, -1.2734162010967003, 1.3487969910153157], [2.5560013835915276, 2.6260378452804725, -0.8430358854379892, -1.436752879704038, -0.091755226495988, -0.05581224188753954, -0.23030358053385533, -1.3617855954396427, 1.706811273356568, -1.1096653016277342], [-0.702982741458736, -0.2242613119857922, 0.5989286371449625, 0.295445135068156, -0.6840655403021124, -0.09374576333896502, 0.18807473991109105, 1.084701115020838, 0.4078312847460411, 0.6058721451262374], [1.7544270881528854, 0.9385698800950733, -0.41900535032191333, -0.18163317860436792, 1.5114095044260925, 0.6437508213866677, 0.00105969021840506, 1.5114388233834668, 1.2079912735252318, -0.11279481356766775], [-0.6404668666688315, 0.04274722395666077, 1.3298812251312104, 0.597847098534998, -0.04666619464671873, 2.598446849352539, -1.5235521682714295, -1.3348115126605207, -0.869142226881601, 2.766981443287153]], "weights_hidden_output": [[1.38687688336165, -0.8896201852762371, -1.2006428610437059], [-0.3450991544956926, -0.8845077020588166, -0.5639791923702826], [-0.06600082100656346, -0.29147763325034537, 1.1916955381829142], [0.2783287335262348, 0.7368360861733584, -0.4651846271895411], [-0.9271256606901802, 1.0310296653399438, 0.9474180404871081], [0.9502767225386242, -0.0731149730837603, 0.6821101729138668], [-0.7316638005812806, -0.08838047401774465, 1.0009791223929896], [1.1038754580306238, -0.31068210850471734, 0.026256769742169082], [0.24104770091704844, 2.750258862415533, -0.4361517078124077], [-0.8989056074987146, -0.20751893831838245, 1.6405333162071558]], "bias_hidden": [0.2283357738089792, 1.0847194840568148, -0.3543639971337439, -2.4079384784098674, 0.13517565244417848, -0.07315257264136968, 0.30880597600947063, -1.739850302833761, -0.03683500892720381, -1.1039377473386978], "bias_output": [-0.44535360031939664, -0.04396775291370779, 0.6145028253647847], "current_score": 52, "best_score": 0}, {"id": "Player 8743", "weights_input_hidden": [[-0.46622380043466016, -0.9906617809201327, 0.5601461496629032, 0.2019316078991108, 1.252739489679839, 0.2333214366766371, 1.3958253941407148, 0.09743089902043815, -1.1264648932002463, 1.3487969910153157], [2.5560013835915276, 2.6260378452804725, -0.8430358854379892, -0.4780638434076625, -0.0933014611184798, -0.05581224188753954, -0.23030358053385533, -1.3617855954396427, 1.706811273356568, -1.1096653016277342], [-0.702982741458736, -0.2675514980572742, 0.6369849099888579, 0.2810241165780899, -0.6840655403021124, -0.09374576333896502, 0.18807473991109105, 1.084701115020838, 0.4078312847460411, 0.5191760390469121], [1.7544270881528854, -0.6260157179355571, -0.41900535032191333, -0.18163317860436792, 1.5114095044260925, 0.6437508213866677, 1.2702051430955201, 1.5114388233834668, 1.2079912735252318, -0.11279481356766775], [-0.7013780623599634, 0.11104827174527457, 1.3298812251312104, 0.597847098534998, -0.04666619464671873, 2.598446849352539, -1.4155515277899964, -1.92066421186702, -0.7866838060519904, 2.766981443287153]], "weights_hidden_output": [[1.2499463551765935, -0.9949852327509163, -1.2006428610437059], [-0.3450991544956926, -0.8845077020588166, -0.5252128363529411], [-0.11964758433984868, -0.29147763325034537, -0.4005616377937617], [0.2783287335262348, 0.8122927606986527, 0.918150042967462], [-0.9271256606901802, -0.790724884279309, 0.9474180404871081], [0.9502767225386242, -0.0731149730837603, 0.6821101729138668], [-0.7316638005812806, -0.08838047401774465, 1.044789026290998], [0.3664017432384805, -0.31068210850471734, 0.026256769742169082], [0.2453452831932583, 2.750258862415533, -0.4361517078124077], [-0.8989056074987146, -0.20751893831838245, 1.6405333162071558]], "bias_hidden": [0.2283357738089792, 1.0847194840568148, -0.3543639971337439, -2.4079384784098674, 0.13517565244417848, -0.07315257264136968, 0.30880597600947063, -1.518663557621957, -0.03683500892720381, -1.1039377473386978], "bias_output": [1.7062074190038918, -0.00948339621956542, 0.6145028253647847], "current_score": 116, "best_score": 0}, {"id": "Player 8744", "weights_input_hidden": [[-0.46622380043466016, -0.9906617809201327, 1.0330486130417043, 0.2019316078991108, -0.16440536992113075, 0.2333214366766371, 1.3958253941407148, 0.09743089902043815, -1.4367937366403258, 1.3487969910153157], [2.5560013835915276, 2.6260378452804725, -0.7405812140755927, -1.4218139475213716, -0.091755226495988, -0.05581224188753954, -0.23030358053385533, -1.3617855954396427, 1.7649503907418493, -1.1096653016277342], [-0.702982741458736, -0.2242613119857922, -0.04952274119578026, 0.2810241165780899, -0.6840655403021124, -0.09374576333896502, 0.18807473991109105, 0.037892964902314114, 0.4078312847460411, 0.6058721451262374], [0.20204745927975276, -0.6260157179355571, -0.41900535032191333, -0.18163317860436792, 1.5114095044260925, 0.5336227426815177, -0.012494837562492103, 1.5114388233834668, 1.2958986011477307, -0.11279481356766775], [-0.7013780623599634, 0.04274722395666077, 1.3298812251312104, 0.5226540009182605, 0.0034345794361851784, 2.598446849352539, -1.5235521682714295, -1.92066421186702, -0.7301951863647683, 2.766981443287153]], "weights_hidden_output": [[-0.4703043151397191, -0.8689614183133413, -1.2006428610437059], [0.840820266286706, -0.8845077020588166, -0.5284823446319564], [-0.06600082100656346, -0.29147763325034537, -0.4005616377937617], [0.2783287335262348, 0.8122927606986527, -0.2544977641125501], [-0.9271256606901802, 0.5553826459416713, 0.7368800918350987], [0.9502767225386242, -0.0731149730837603, 1.775271791056901], [-0.6141322480639746, -0.09656379185458135, 1.1045154479671813], [0.38380518104683653, -0.31068210850471734, 0.026256769742169082], [0.2453452831932583, 2.750258862415533, -0.4361517078124077], [-0.8989056074987146, -0.20751893831838245, 1.6405333162071558]], "bias_hidden": [0.1061853593265526, 1.0775767653073294, -0.3543639971337439, -2.4079384784098674, 0.13517565244417848, -0.07315257264136968, 0.30880597600947063, -1.4546312702908744, -0.03683500892720381, -1.1039377473386978], "bias_output": [1.578518108594739, -0.00948339621956542, 0.6145028253647847], "current_score": 117, "best_score": 0}, {"id": "Player 8745", "weights_input_hidden": [[-0.46622380043466016, -1.095941527630038, 0.3999586743218957, 0.2019316078991108, 1.252739489679839, 0.8053810123353, 0.7192999612612252, 0.09743089902043815, -1.357060274368535, 1.3487969910153157], [2.5560013835915276, 2.6260378452804725, -0.8430358854379892, -0.4920360382337663, -0.091755226495988, -0.05581224188753954, -0.23030358053385533, -1.3617855954396427, 1.706811273356568, -1.1096653016277342], [-0.6703212980250259, -0.2242613119857922, -0.04952274119578026, 0.2810241165780899, -1.0181082540991095, -0.09374576333896502, 0.18807473991109105, 0.9937606954925995, 0.4078312847460411, 0.5634582250157383], [1.6795752340141006, -0.6260157179355571, -0.46179270403143546, -0.18163317860436792, 1.5114095044260925, 0.6437508213866677, 0.00105969021840506, 1.5114388233834668, 1.2079912735252318, -0.11279481356766775], [-0.8202818821607278, 0.11104827174527457, 1.3298812251312104, 0.597847098534998, -0.04666619464671873, 2.5487434438408583, -1.5235521682714295, -2.0596442406935775, -0.869142226881601, 2.8355887238168793]], "weights_hidden_output": [[1.2499463551765935, -0.9949852327509163, -1.274732595547251], [-0.3450991544956926, -0.8845077020588166, -0.48118676502951047], [-0.06600082100656346, -0.29147763325034537, -0.4005616377937617], [0.2783287335262348, 0.7368360861733584, 0.918150042967462], [-0.9271256606901802, -0.790724884279309, 0.9474180404871081], [0.9502767225386242, -0.0731149730837603, 0.6821101729138668], [-0.5095676169268555, -0.08838047401774465, 0.9372195846823799], [1.8445112536080035, -0.31068210850471734, 0.026256769742169082], [0.2453452831932583, 2.3269302512358583, -0.4361517078124077], [-0.8989056074987146, -0.20751893831838245, 1.6405333162071558]], "bias_hidden": [0.23273179818205464, 1.0847194840568148, 0.18377267134628242, -2.4079384784098674, 0.13517565244417848, -0.07315257264136968, 0.30880597600947063, -1.518663557621957, -0.03683500892720381, -1.1039377473386978], "bias_output": [1.578518108594739, -0.04396775291370779, 0.48976272309037905], "current_score": 47, "best_score": 0}, {"id": "Player 8746", "weights_input_hidden": [[-0.46622380043466016, -0.9906617809201327, 0.5601461496629032, 0.2019316078991108, 1.252739489679839, 0.2333214366766371, 1.3958253941407148, 0.09743089902043815, -1.1264648932002463, -0.3264998296835073], [2.5560013835915276, 2.6260378452804725, -0.8430358854379892, -1.436752879704038, -0.091755226495988, -0.05581224188753954, -0.23030358053385533, -2.231056135655767, 1.6190870454076656, -1.1096653016277342], [-0.6703212980250259, -0.2242613119857922, -0.04952274119578026, 0.2810241165780899, -0.650371669627252, -0.09374576333896502, 0.18807473991109105, 1.084701115020838, 0.4078312847460411, 0.6058721451262374], [1.7544270881528854, -0.7243676871410707, -1.1026067667819914, -0.17934094916625276, 1.5114095044260925, 0.31905601817963475, 0.00105969021840506, 1.5114388233834668, 1.2079912735252318, -0.11279481356766775], [-0.8202818821607278, 0.040176824804015764, 1.3298812251312104, 0.4398834111568669, -0.04666619464671873, 2.598446849352539, -1.4155515277899964, -2.2234209535276763, -0.869142226881601, 2.766981443287153]], "weights_hidden_output": [[1.2499463551765935, -0.9949852327509163, -1.2006428610437059], [-0.3450991544956926, -0.8683666018038497, -0.5252128363529411], [-0.06600082100656346, -0.29147763325034537, -0.4005616377937617], [0.2783287335262348, 0.7368360861733584, 0.918150042967462], [-0.9271256606901802, -0.3507122773310683, 0.9474180404871081], [0.9502767225386242, -0.0731149730837603, 2.316615831762046], [-0.7316638005812806, -0.09656379185458135, 1.0009791223929896], [0.3664017432384805, -0.31068210850471734, -0.012364429324220815], [0.2453452831932583, 2.3269302512358583, -0.6085121167250104], [0.6312881618070858, -0.20759879317378285, 1.6405333162071558]], "bias_hidden": [0.1061853593265526, 1.0847194840568148, -0.3543639971337439, -2.4079384784098674, 0.13517565244417848, -0.07315257264136968, 0.30880597600947063, -1.518663557621957, -0.03683500892720381, -0.9992878250001674], "bias_output": [1.578518108594739, -0.00948339621956542, -0.9032077648976959], "current_score": 47, "best_score": 0}, {"id": "Player 8747", "weights_input_hidden": [[-0.46622380043466016, -0.9906617809201327, 1.0330486130417043, 0.2019316078991108, 1.3362109625492642, 0.2333214366766371, 1.5516926505603663, 0.09743089902043815, -1.1264648932002463, 1.3487969910153157], [2.353522434229982, 2.6260378452804725, -0.8430358854379892, -1.436752879704038, -0.0933014611184798, 0.7794026752648968, -0.23030358053385533, -1.3617855954396427, 1.706811273356568, -1.1096653016277342], [-0.702982741458736, -0.2242613119857922, -0.04952274119578026, 0.2810241165780899, -0.6840655403021124, -0.09374576333896502, 0.18990688597653857, 0.9937606954925995, 0.4078312847460411, 0.5191760390469121], [1.6795752340141006, -0.6260157179355571, -0.41900535032191333, -0.18163317860436792, 1.5114095044260925, 0.6437508213866677, -0.09097726919736222, 1.5114388233834668, 1.2346194421819403, -0.11279481356766775], [-0.8214766168470534, 0.11104827174527457, 1.3298812251312104, 0.597847098534998, -0.04666619464671873, 2.598446849352539, -1.5235521682714295, -2.0279173471261, -0.869142226881601, -0.3158409798486964]], "weights_hidden_output": [[1.2499463551765935, -0.9949852327509163, -1.2006428610437059], [-0.3450991544956926, -0.8845077020588166, -0.49963458028546254], [-0.11964758433984868, -0.29147763325034537, -0.4005616377937617], [0.2783287335262348, 0.7368360861733584, -0.4651846271895411], [-0.9271256606901802, -0.3507122773310683, 1.014553859652603], [0.8731819790608237, -0.0731149730837603, 0.6821101729138668], [-0.7316638005812806, -0.08838047401774465, 0.9404599463079869], [1.1038754580306238, -0.31068210850471734, 0.026256769742169082], [0.2453452831932583, 2.7450566796519764, -0.4361517078124077], [-0.8989056074987146, -0.20751893831838245, 1.6405333162071558]], "bias_hidden": [0.1061853593265526, 1.0847194840568148, -0.3543639971337439, -2.4079384784098674, 0.13517565244417848, -0.11313309957858553, 0.30880597600947063, -1.518663557621957, -0.03683500892720381, -1.1039377473386978], "bias_output": [1.578518108594739, -0.05628791762282423, 0.7723997577628979], "current_score": 47, "best_score": 0}, {"id": "Player 8748", "weights_input_hidden": [[-0.46622380043466016, -0.9906617809201327, 1.0330486130417043, 0.23479139922852232, 1.252739489679839, 0.2333214366766371, 1.3958253941407148, 0.09743089902043815, -1.357060274368535, 1.3487969910153157], [2.2099696435924456, 2.6260378452804725, -0.8430358854379892, -1.436752879704038, -0.0933014611184798, 1.3613128079319927, -0.23030358053385533, -0.038491894967352176, 1.706811273356568, -1.1096653016277342], [-0.702982741458736, -0.2675514980572742, -0.04952274119578026, 0.2308319599691685, -0.6840655403021124, -0.1026155907535482, 0.18807473991109105, 0.9937606954925995, 0.4078312847460411, 0.6058721451262374], [1.7544270881528854, -0.6260157179355571, -0.41900535032191333, -0.18432989064998748, 1.6529923320805913, 0.6437508213866677, 0.00105969021840506, 1.5114388233834668, 1.2079912735252318, -0.9009238078079594], [-0.7013780623599634, 0.04274722395666077, 1.3298812251312104, 0.597847098534998, -0.04666619464671873, 2.760815250742603, -1.4155515277899964, -1.92066421186702, -0.869142226881601, 1.130801525803824]], "weights_hidden_output": [[1.3810166481274748, -0.8896201852762371, -1.2006428610437059], [-0.3450991544956926, -0.8845077020588166, -0.5592368328312686], [-1.3861646243196304, -0.3034923846670158, -0.4005616377937617], [0.2783287335262348, 0.7368360861733584, 0.6975554428900681], [-0.9271256606901802, -0.790724884279309, 1.0275669129183926], [0.9502767225386242, -0.0731149730837603, 0.6821101729138668], [-0.7316638005812806, -0.08838047401774465, 0.9372195846823799], [0.3664017432384805, -0.31068210850471734, 0.026256769742169082], [0.2453452831932583, 2.750258862415533, -0.6433575523534549], [-0.39146732993233524, -0.18592180344925882, 1.6405333162071558]], "bias_hidden": [0.1061853593265526, -0.33321048292583444, -0.3543639971337439, -2.4079384784098674, 0.13517565244417848, -0.07315257264136968, 0.30880597600947063, -1.518663557621957, -0.03683500892720381, -1.1039377473386978], "bias_output": [1.578518108594739, -0.00948339621956542, 0.6145028253647847], "current_score": 47, "best_score": 0}, {"id": "Player 8749", "weights_input_hidden": [[-0.4309620874012394, -0.8599336962452421, 1.0330486130417043, 0.2019316078991108, 1.252739489679839, 0.6259880493655395, 1.3958253941407148, -0.004757556879493502, -1.2734162010967003, 1.3487969910153157], [2.24947702684825, 2.8093477698636513, -0.8430358854379892, -0.5343452737287883, -0.091755226495988, -0.05581224188753954, -0.23030358053385533, -1.3617855954396427, 0.1935182605334899, -1.1096653016277342], [-0.6703212980250259, -0.2956797080680193, -0.04952274119578026, 0.2810241165780899, -0.6840655403021124, 0.23464139893953093, 0.18990688597653857, 1.084701115020838, 1.5105381839376735, 0.5191760390469121], [1.9117385726753822, -0.6260157179355571, 0.0518671544569423, -0.18163317860436792, 1.5114095044260925, 0.6437508213866677, 0.00105969021840506, 1.5114388233834668, 1.3166803920232113, -0.11279481356766775], [-0.8202818821607278, 0.04274722395666077, 1.3298812251312104, 0.597847098534998, -0.052175231635878457, 2.598446849352539, -1.5235521682714295, -1.92066421186702, -0.869142226881601, 2.766981443287153]], "weights_hidden_output": [[1.2499463551765935, -0.8896201852762371, -1.2006428610437059], [0.9606562758626401, -0.16544941312015835, -0.5997257314375668], [-0.06600082100656346, -0.29147763325034537, -0.4005616377937617], [0.2783287335262348, 0.8122927606986527, -0.4651846271895411], [-0.9271256606901802, -0.3507122773310683, 1.014553859652603], [0.9502767225386242, -0.0731149730837603, 0.6821101729138668], [-0.7316638005812806, -0.09656379185458135, 1.0009791223929896], [0.3664017432384805, -0.31068210850471734, -0.011395601438185589], [0.11517784367832751, 2.3269302512358583, -0.6085121167250104], [-0.8368022905493034, -0.20751893831838245, 1.6405333162071558]], "bias_hidden": [0.2283357738089792, 1.0847194840568148, -0.3543639971337439, -2.4079384784098674, 0.13517565244417848, -0.026143758107746523, 0.30880597600947063, -1.518663557621957, -0.03683500892720381, -1.1039377473386978], "bias_output": [1.578518108594739, -0.00948339621956542, 0.6149328230380301], "current_score": 48, "best_score": 0}, {"id": "Player 8750", "weights_input_hidden": [[0.7191880545784336, -0.9906617809201327, 0.4577405104413002, 0.2019316078991108, 1.252739489679839, 0.7199295235935025, 1.3958253941407148, -0.004757556879493502, -1.1264648932002463, 1.3487969910153157], [2.353522434229982, 2.8093477698636513, -0.8430358854379892, -1.436752879704038, -0.091755226495988, -0.05581224188753954, -0.23030358053385533, -1.3617855954396427, 1.706811273356568, -1.243429048994944], [-0.702982741458736, -0.2242613119857922, -0.04952274119578026, 0.295445135068156, -0.6840655403021124, -0.09374576333896502, 0.18990688597653857, 1.084701115020838, 0.4078312847460411, 0.5191760390469121], [1.9117385726753822, 0.9385698800950733, -0.41900535032191333, -0.18163317860436792, 1.5114095044260925, 0.31905601817963475, 0.00105969021840506, 1.5114388233834668, 1.3166803920232113, -0.11279481356766775], [-0.7013780623599634, 0.04274722395666077, 1.3298812251312104, 0.597847098534998, -0.04666619464671873, 2.598446849352539, -1.4155515277899964, -1.1934175199227806, -0.869142226881601, 2.766981443287153]], "weights_hidden_output": [[1.2499463551765935, -0.9949852327509163, -1.2006428610437059], [-0.24457185304214665, -0.8845077020588166, -0.5997257314375668], [-0.06600082100656346, -0.29147763325034537, -0.4580903192115358], [0.2383369044343357, 0.7736128778137434, 0.6975554428900681], [-0.9271256606901802, -0.790724884279309, 1.014553859652603], [0.8731819790608237, -0.0731149730837603, 0.6821101729138668], [-0.6141322480639746, -0.08463806403858311, 1.0860403629519135], [0.3664017432384805, -0.31068210850471734, 0.026256769742169082], [0.11517784367832751, 2.750258862415533, -0.6085121167250104], [-0.8368022905493034, -0.20751893831838245, 1.6405333162071558]], "bias_hidden": [0.2283357738089792, 1.0847194840568148, -0.3543639971337439, -2.4079384784098674, 0.13517565244417848, -0.07315257264136968, 0.30880597600947063, -1.518663557621957, -0.03683500892720381, -1.1039377473386978], "bias_output": [1.578518108594739, -0.00948339621956542, 0.6145028253647847], "current_score": 47, "best_score": 0}, {"id": "Player 8751", "weights_input_hidden": [[-0.46622380043466016, -0.9906617809201327, 0.3999586743218957, 0.2019316078991108, -0.3410202881267985, 0.2333214366766371, 0.7192999612612252, 0.09743089902043815, -1.357060274368535, 1.3487969910153157], [2.353522434229982, 2.6260378452804725, -0.8430358854379892, -1.436752879704038, -0.091755226495988, -0.05581224188753954, -1.8852402223226465, -1.3617855954396427, 1.706811273356568, -1.1096653016277342], [-0.702982741458736, -0.277184415880843, -0.04952274119578026, 0.27437960618118756, -0.6840655403021124, -0.09374576333896502, 0.18807473991109105, 0.9937606954925995, 0.4078312847460411, 0.5322436071888247], [1.7544270881528854, -0.6260157179355571, -0.41900535032191333, -0.18163317860436792, 1.5114095044260925, 0.6437508213866677, 0.00105969021840506, 1.5114388233834668, 1.2079912735252318, -0.11279481356766775], [-0.8202818821607278, 0.004516930769362243, 1.3298812251312104, 0.597847098534998, -0.052175231635878457, 2.5487434438408583, -1.5235521682714295, -1.92066421186702, -0.869142226881601, 2.8355887238168793]], "weights_hidden_output": [[1.2499463551765935, -0.9949852327509163, -1.2006428610437059], [-0.3450991544956926, 0.34067529456075474, -0.5252128363529411], [-0.06600082100656346, -0.29147763325034537, -0.4005616377937617], [0.28290968856669374, 0.7368360861733584, 0.918150042967462], [-0.9271256606901802, -0.790724884279309, 0.9474180404871081], [0.9502767225386242, -0.0731149730837603, 0.6821101729138668], [-0.6862169581345872, -0.08838047401774465, 0.9372195846823799], [1.1038754580306238, -0.31068210850471734, 1.4310010372745523], [0.2453452831932583, 2.3269302512358583, -0.4361517078124077], [-0.8989056074987146, -0.20751893831838245, 1.6405333162071558]], "bias_hidden": [0.1061853593265526, 1.0847194840568148, 0.18377267134628242, -2.4079384784098674, 0.13517565244417848, -0.1825841990542888, 0.30880597600947063, -1.518663557621957, -0.03683500892720381, -1.1039377473386978], "bias_output": [1.578518108594739, -0.04396775291370779, 1.5783737258023982], "current_score": 57, "best_score": 0}, {"id": "Player 8752", "weights_input_hidden": [[1.5046343213373192, -0.9906617809201327, 1.0330486130417043, 0.18748680052061512, 1.252739489679839, 0.6332936661092543, 1.3958253941407148, 0.09743089902043815, -1.1264648932002463, 1.3487969910153157], [2.353522434229982, 2.6260378452804725, -0.7306474744383078, -1.4002760696648386, -0.0933014611184798, 1.4047947719363523, -0.23030358053385533, -1.3617855954396427, 1.706811273356568, -1.1096653016277342], [-0.6703212980250259, -1.2420646631442671, -0.04952274119578026, 0.2810241165780899, -0.6840655403021124, -0.09374576333896502, 0.10408124717320005, 1.084701115020838, 0.4078312847460411, 0.6058721451262374], [1.7632543353172108, -0.6260157179355571, -0.41900535032191333, -0.18163317860436792, 1.5114095044260925, 0.041186601209097284, 0.00105969021840506, 1.5114388233834668, 0.4659915403498906, -0.11279481356766775], [-0.7013780623599634, 0.20990883158892248, 1.3298812251312104, 0.597847098534998, -0.04666619464671873, 0.5539729482050981, -1.5235521682714295, -1.92066421186702, -0.9478952088158891, 2.8355887238168793]], "weights_hidden_output": [[1.2499463551765935, -0.8888812389729095, -1.2006428610437059], [0.9606562758626401, -0.8845077020588166, -0.5284823446319564], [-1.4205792995137916, -0.3176503512082513, -0.4005616377937617], [0.2783287335262348, 0.7368360861733584, 0.6190489362988714], [-0.9271256606901802, -0.790724884279309, 1.014553859652603], [0.9502767225386242, -0.0731149730837603, 0.6821101729138668], [1.1691883611892693, -0.08463806403858311, 1.1045154479671813], [1.1038754580306238, -0.31068210850471734, -0.012364429324220815], [0.2453452831932583, 2.7450566796519764, -0.4361517078124077], [-0.8716607179070043, -0.20751893831838245, 1.6405333162071558]], "bias_hidden": [0.1061853593265526, 1.0847194840568148, -0.3543639971337439, -2.4079384784098674, 0.13517565244417848, 1.3024851781061095, 0.30880597600947063, -1.518663557621957, -0.04280853706169305, -1.1039377473386978], "bias_output": [1.578518108594739, -0.04396775291370779, 0.3677846669285526], "current_score": 47, "best_score": 0}, {"id": "Player 8753", "weights_input_hidden": [[-0.46622380043466016, -0.9906617809201327, 0.5471751447991983, 0.2019316078991108, 1.252739489679839, 0.2333214366766371, 1.3958253941407148, 0.12536476061908422, -1.5005179011439524, 1.6587696482460785], [2.3981179281949383, 2.6395597773510384, -0.8430358854379892, -0.4920360382337663, -0.091755226495988, -0.05581224188753954, -0.23030358053385533, -2.1724016999053823, 1.706811273356568, -1.1096653016277342], [-0.702982741458736, -0.2242613119857922, 0.6369849099888579, 0.295445135068156, -0.6840655403021124, -0.09374576333896502, 0.18990688597653857, 1.084701115020838, 0.4078312847460411, 0.6058721451262374], [1.7544270881528854, 0.9385698800950733, -0.41900535032191333, -0.18163317860436792, 1.5114095044260925, 0.6437508213866677, 0.00105969021840506, 1.5114388233834668, 1.182007647343174, 0.09824523692561116], [-0.7013780623599634, 0.04274722395666077, 1.3298812251312104, 0.4398834111568669, -0.04666619464671873, 2.465536014644729, -1.4155515277899964, -1.92066421186702, -0.869142226881601, 2.766981443287153]], "weights_hidden_output": [[1.2499463551765935, -0.9949852327509163, -1.2006428610437059], [-0.3450991544956926, -0.8845077020588166, -0.6061341194284127], [-0.11350554664441642, 0.49085999892017773, -0.4005616377937617], [0.2783287335262348, 0.2543941046438194, 0.918150042967462], [-0.9271256606901802, -0.790724884279309, 0.9474180404871081], [0.9502767225386242, -0.0731149730837603, 0.6821101729138668], [-0.7316638005812806, -0.08838047401774465, 1.0009791223929896], [0.3664017432384805, -0.31068210850471734, 0.026256769742169082], [0.2453452831932583, 2.750258862415533, -0.4361517078124077], [-0.8989056074987146, -0.16498391084614303, 1.6405333162071558]], "bias_hidden": [0.1061853593265526, 1.0847194840568148, 0.25137084986746544, -2.4079384784098674, 0.13517565244417848, -0.07315257264136968, 0.30880597600947063, -1.518663557621957, -0.03683500892720381, -1.1039377473386978], "bias_output": [1.578518108594739, -0.12511567845777988, 0.6145028253647847], "current_score": 363, "best_score": 0}, {"id": "Player 8754", "weights_input_hidden": [[-0.609978513738993, -1.0281856508775353, 0.5601461496629032, 0.2019316078991108, 1.252739489679839, 0.2333214366766371, 1.3958253941407148, 0.09743089902043815, -1.2734162010967003, 1.3487969910153157], [2.353522434229982, 2.6260378452804725, -0.8430358854379892, -1.436752879704038, -0.091755226495988, -0.05581224188753954, -0.23030358053385533, -2.231056135655767, 1.706811273356568, -1.1096653016277342], [-0.702982741458736, -0.2242613119857922, 0.6369849099888579, 0.295445135068156, -0.6840655403021124, -0.09374576333896502, 0.18990688597653857, 1.084701115020838, 0.4078312847460411, 0.5191760390469121], [1.7544270881528854, 0.9385698800950733, -0.41900535032191333, -0.18163317860436792, 1.5114095044260925, 0.6437508213866677, 1.2702051430955201, 1.3754610453181686, 1.2079912735252318, -0.11279481356766775], [-0.7013780623599634, 0.11104827174527457, 1.3298812251312104, 0.597847098534998, -0.04666619464671873, 2.598446849352539, -1.5235521682714295, -1.92066421186702, -0.869142226881601, 2.766981443287153]], "weights_hidden_output": [[1.38687688336165, -0.9949852327509163, -1.2006428610437059], [-0.3450991544956926, -0.8845077020588166, -0.5639791923702826], [-0.06600082100656346, -1.8450998320941006, -0.4005616377937617], [0.2783287335262348, 0.8122927606986527, 0.6975554428900681], [-0.9271256606901802, -0.3507122773310683, 1.0291719542795004], [0.9502767225386242, -1.4566821539003723, 0.6821101729138668], [-0.7316638005812806, -0.09656379185458135, 1.0009791223929896], [1.1038754580306238, -0.31068210850471734, 0.026256769742169082], [0.2453452831932583, 2.750258862415533, -0.4361517078124077], [-0.8989056074987146, -0.20751893831838245, 1.6405333162071558]], "bias_hidden": [0.2283357738089792, 1.0847194840568148, -0.3543639971337439, -2.4079384784098674, 0.13517565244417848, -0.07315257264136968, 0.30880597600947063, -1.518663557621957, -0.03683500892720381, -1.1039377473386978], "bias_output": [1.578518108594739, -0.00948339621956542, 0.6145028253647847], "current_score": 117, "best_score": 0}, {"id": "Player 8755", "weights_input_hidden": [[-0.46622380043466016, -1.095941527630038, 1.0330486130417043, 0.2019316078991108, -0.3410202881267985, 0.8053810123353, 1.3958253941407148, 0.09743089902043815, -1.1264648932002463, 1.3487969910153157], [2.353522434229982, 2.6260378452804725, -0.8430358854379892, -1.436752879704038, -0.091755226495988, -0.05581224188753954, -0.23030358053385533, -1.3617855954396427, 1.706811273356568, -1.1096653016277342], [-0.702982741458736, -0.2242613119857922, -0.04952274119578026, 0.23250488360230914, -0.6840655403021124, -0.09374576333896502, 0.18807473991109105, 0.9937606954925995, 0.4078312847460411, 0.5322436071888247], [1.7544270881528854, -0.6260157179355571, -1.1555915218043626, -0.18163317860436792, 1.5114095044260925, 0.6437508213866677, 0.00105969021840506, 1.5114388233834668, 1.2079912735252318, -0.11279481356766775], [-0.8202818821607278, 0.04274722395666077, 1.3298812251312104, 0.597847098534998, -0.045276774147727114, 0.1620740236391755, -1.5235521682714295, -1.92066421186702, -0.9986511741341559, 2.8355887238168793]], "weights_hidden_output": [[1.38687688336165, -0.9949852327509163, -1.274732595547251], [-0.3450991544956926, -0.8845077020588166, -0.5252128363529411], [-0.06600082100656346, -0.29147763325034537, -0.4005616377937617], [0.2783287335262348, 0.8122927606986527, 0.6975554428900681], [-0.9271256606901802, -0.790724884279309, 1.014553859652603], [0.9502767225386242, -0.0731149730837603, 0.6821101729138668], [-0.7316638005812806, -0.08838047401774465, 1.0009791223929896], [1.1038754580306238, -0.31068210850471734, 0.020381477959167192], [0.2453452831932583, 2.750258862415533, -0.4361517078124077], [-0.8989056074987146, -0.20751893831838245, 1.6405333162071558]], "bias_hidden": [0.23273179818205464, 1.1199955853749475, 0.18377267134628242, -2.4079384784098674, 0.13517565244417848, -0.1825841990542888, 0.30880597600947063, -1.518663557621957, -0.03683500892720381, -1.1039377473386978], "bias_output": [1.578518108594739, -0.04396775291370779, 0.6145028253647847], "current_score": 222, "best_score": 0}, {"id": "Player 8756", "weights_input_hidden": [[-0.46622380043466016, -0.9906617809201327, 1.0330486130417043, 0.2019316078991108, 1.252739489679839, 0.2333214366766371, 1.3958253941407148, 1.8500819841670604, -1.2734162010967003, 1.3487969910153157], [2.5560013835915276, 2.6260378452804725, -0.8430358854379892, -1.436752879704038, -0.0933014611184798, 0.6893650353972055, -0.23030358053385533, -1.3617855954396427, 1.706811273356568, -1.1096653016277342], [-0.702982741458736, -0.2242613119857922, 0.6369849099888579, 0.295445135068156, -0.6840655403021124, -0.09374576333896502, 0.18807473991109105, 0.9937606954925995, -0.5588435055197425, 0.6058721451262374], [1.6795752340141006, -0.6260157179355571, -0.41900535032191333, -0.18163317860436792, 1.5478311771892457, 0.6437508213866677, 0.00105969021840506, 1.5114388233834668, 1.0801053317106153, -0.11279481356766775], [-0.7013780623599634, 0.11104827174527457, 1.3298812251312104, 0.597847098534998, -0.04666619464671873, 2.598446849352539, -1.5235521682714295, -1.92066421186702, -0.869142226881601, -0.3158409798486964]], "weights_hidden_output": [[-0.7286324214650663, -0.8896201852762371, -1.2006428610437059], [-0.3450991544956926, 0.34067529456075474, -0.5252128363529411], [-0.06600082100656346, -0.29147763325034537, -0.4005616377937617], [0.2783287335262348, 0.7368360861733584, -0.4651846271895411], [-0.9271256606901802, -0.790724884279309, 1.014553859652603], [0.8731819790608237, -0.0731149730837603, 2.316615831762046], [-0.7316638005812806, -0.08838047401774465, 0.9404599463079869], [0.3669659002873058, -0.31068210850471734, 1.4310010372745523], [0.2453452831932583, 2.750258862415533, -0.6085121167250104], [-0.8989056074987146, -0.20751893831838245, 1.6405333162071558]], "bias_hidden": [0.23273179818205464, 1.0847194840568148, -0.3543639971337439, -2.4079384784098674, 0.13517565244417848, -0.11313309957858553, 0.30880597600947063, -1.518663557621957, -0.03683500892720381, -1.1039377473386978], "bias_output": [1.578518108594739, -0.05628791762282423, 0.6145028253647847], "current_score": 55, "best_score": 0}, {"id": "Player 8757", "weights_input_hidden": [[-0.46622380043466016, -0.9906617809201327, 1.0330486130417043, 0.2019316078991108, 1.252739489679839, 0.2333214366766371, 1.3958253941407148, 0.4576774241641894, -1.4367937366403258, 1.3487969910153157], [2.5560013835915276, 2.6260378452804725, -0.8430358854379892, -1.436752879704038, -0.091755226495988, -0.05581224188753954, -0.23030358053385533, -0.03800327486175626, 1.706811273356568, -1.1096653016277342], [-0.702982741458736, -0.2242613119857922, -0.04952274119578026, 0.2810241165780899, -0.6840655403021124, -0.17755073167671898, 0.18807473991109105, 1.084701115020838, 0.4078312847460411, 0.6058721451262374], [1.7544270881528854, 0.9385698800950733, -0.41900535032191333, -0.18432989064998748, 1.5114095044260925, 0.6437508213866677, 0.00105969021840506, 1.5114388233834668, 1.2079912735252318, -0.7551538739357938], [-0.7013780623599634, 0.04274722395666077, 1.3298812251312104, 0.597847098534998, -0.04666619464671873, 2.325773592436251, -1.4155515277899964, -1.92066421186702, -0.869142226881601, 2.766981443287153]], "weights_hidden_output": [[1.2499463551765935, -0.9949852327509163, -1.2006428610437059], [-0.3450991544956926, -0.8845077020588166, -0.5252128363529411], [-0.06600082100656346, -0.29147763325034537, -0.3108391035625346], [0.2783287335262348, 0.2543941046438194, -0.4651846271895411], [-0.9271256606901802, -0.790724884279309, 1.014553859652603], [0.9502767225386242, -0.0731149730837603, 0.6821101729138668], [-0.7316638005812806, -0.09656379185458135, 1.0009791223929896], [1.1038754580306238, -0.31068210850471734, 0.026256769742169082], [0.2453452831932583, 2.750258862415533, -0.4361517078124077], [-0.8368022905493034, -0.20751893831838245, 1.6405333162071558]], "bias_hidden": [0.1061853593265526, 1.0847194840568148, -0.3543639971337439, -2.4079384784098674, 0.13517565244417848, -0.07315257264136968, 0.3143348207039801, -1.518663557621957, -0.12914604385804776, -1.254907543720149], "bias_output": [1.578518108594739, -0.04396775291370779, 0.6145028253647847], "current_score": 47, "best_score": 0}, {"id": "Player 8758", "weights_input_hidden": [[-0.46622380043466016, -0.9906617809201327, 1.0330486130417043, 0.2019316078991108, 1.252739489679839, 0.2333214366766371, 1.4216293144530994, 0.09743089902043815, -1.1264648932002463, 1.6587696482460785], [0.7459986510114347, 2.6260378452804725, -0.8430358854379892, -1.436752879704038, -0.091755226495988, -0.05581224188753954, -0.23030358053385533, -2.231056135655767, 1.706811273356568, -1.1096653016277342], [-0.702982741458736, -0.2242613119857922, -0.04952274119578026, 0.2308319599691685, -0.6840655403021124, -0.1026155907535482, 0.18990688597653857, 1.084701115020838, 0.4078312847460411, 0.6058721451262374], [1.7544270881528854, 0.9385698800950733, -0.4117299706760596, -0.18163317860436792, 1.5114095044260925, 0.6437508213866677, 1.2702051430955201, 1.5114388233834668, 1.2079912735252318, -0.11279481356766775], [-0.7013780623599634, 0.04274722395666077, 1.3298812251312104, 0.597847098534998, 0.09256510719631361, 2.598446849352539, -1.5235521682714295, -1.92066421186702, -0.853469054712987, 2.766981443287153]], "weights_hidden_output": [[1.38687688336165, -0.9949852327509163, -1.2006428610437059], [-0.3450991544956926, -0.8845077020588166, -2.020590239592177], [-0.026324746350793425, -0.29147763325034537, -0.4005616377937617], [0.2783287335262348, 0.8122927606986527, 0.918150042967462], [-0.9271256606901802, -0.3507122773310683, 0.872230493494742], [0.9502767225386242, -0.0731149730837603, 2.316615831762046], [-0.7316638005812806, -0.08838047401774465, 0.9102500673215388], [1.1038754580306238, -0.34733227701109276, 1.4310010372745523], [0.2453452831932583, 2.3269302512358583, -0.6085121167250104], [-0.8989056074987146, -0.20759879317378285, 1.826434548036367]], "bias_hidden": [0.2283357738089792, -0.7253218921063068, -0.3543639971337439, -2.4079384784098674, 0.13517565244417848, -0.6031320746752623, 0.30880597600947063, -1.4824365002639668, -0.03683500892720381, -1.1039377473386978], "bias_output": [1.578518108594739, -0.00948339621956542, -0.8873422077040759], "current_score": 117, "best_score": 0}, {"id": "Player 8759", "weights_input_hidden": [[-0.3307425848025317, -0.9891656194003181, 0.44448142228130827, 0.2019316078991108, 1.252739489679839, 0.2333214366766371, 1.3958253941407148, 0.09743089902043815, -1.1264648932002463, 1.3487969910153157], [2.330756060623325, 2.6260378452804725, -0.8430358854379892, -0.4920360382337663, -0.0933014611184798, -0.05581224188753954, -0.23030358053385533, -1.3617855954396427, 1.706811273356568, -1.1096653016277342], [-0.7989816243337777, -0.2242613119857922, -0.04952274119578026, 0.2810241165780899, -0.6840655403021124, -0.09374576333896502, 0.18990688597653857, 1.1201905513261428, 0.4078312847460411, 0.5191760390469121], [1.7544270881528854, -0.6260157179355571, -0.41900535032191333, -0.18163317860436792, 1.5114095044260925, 0.5336227426815177, 0.00105969021840506, 1.5114388233834668, 1.2079912735252318, -0.11279481356766775], [-0.7013780623599634, 0.04274722395666077, 1.3298812251312104, 0.27354025530203196, -0.04666619464671873, 2.598446849352539, -1.5235521682714295, -1.92066421186702, -0.869142226881601, 2.766981443287153]], "weights_hidden_output": [[1.2499463551765935, -0.9949852327509163, -1.2006428610437059], [-0.3450991544956926, -0.8845077020588166, -0.5644294799356949], [-0.06600082100656346, -0.29147763325034537, -0.4005616377937617], [0.28290968856669374, 0.7368360861733584, 0.918150042967462], [-0.9271256606901802, 1.5798526752849384, 0.9474180404871081], [0.9502767225386242, -1.4566821539003723, 0.6821101729138668], [-0.7316638005812806, -0.09656379185458135, 0.9092103919815883], [0.3664017432384805, -0.31068210850471734, -0.8266989068173788], [0.2453452831932583, 2.3269302512358583, -0.4361517078124077], [-0.8989056074987146, -0.20751893831838245, 1.6405333162071558]], "bias_hidden": [0.1061853593265526, 1.0847194840568148, -0.3543639971337439, -2.4079384784098674, 0.13517565244417848, -0.057379643626093456, 0.8781106892243616, -1.518663557621957, -0.9973711786566709, -1.1039377473386978], "bias_output": [1.5926203856063872, -0.00948339621956542, 0.6145028253647847], "current_score": 52, "best_score": 0}, {"id": "Player 8760", "weights_input_hidden": [[-0.46622380043466016, -1.0149061582767134, 1.0330486130417043, 0.2019316078991108, 1.1456808420615323, 0.2333214366766371, 1.3958253941407148, 0.12536476061908422, -1.5005179011439524, 1.3487969910153157], [2.3981179281949383, 2.6260378452804725, -0.8430358854379892, -0.4920360382337663, -0.091755226495988, -0.05581224188753954, -0.23030358053385533, -2.231056135655767, 0.16835448264949252, -1.1096653016277342], [-0.702982741458736, -0.2675514980572742, 0.6369849099888579, 0.295445135068156, -0.6840655403021124, -0.09374576333896502, 0.18990688597653857, 1.084701115020838, 0.4078312847460411, 0.6121942832271804], [1.7544270881528854, 0.9385698800950733, -0.41900535032191333, -0.18163317860436792, 1.5114095044260925, 0.6437508213866677, 0.00105969021840506, 1.599304993189167, 1.2079912735252318, -0.11279481356766775], [-0.7013780623599634, 0.04274722395666077, 1.3298812251312104, 0.597847098534998, -0.052175231635878457, 2.598446849352539, -1.5235521682714295, -1.92066421186702, -0.869142226881601, 2.766981443287153]], "weights_hidden_output": [[1.2499463551765935, -0.8896201852762371, -1.2006428610437059], [-0.3450991544956926, -0.8845077020588166, -0.5252128363529411], [-0.11964758433984868, 0.49085999892017773, -0.4005616377937617], [0.2783287335262348, 0.2543941046438194, -0.4651846271895411], [-0.9271256606901802, -0.790724884279309, 0.9474180404871081], [0.9502767225386242, -1.4566821539003723, 0.6821101729138668], [-0.7316638005812806, -0.08838047401774465, 1.1045154479671813], [0.3664017432384805, -0.31068210850471734, 0.026256769742169082], [0.2453452831932583, 2.750258862415533, -0.4361517078124077], [-0.8989056074987146, -0.20751893831838245, 1.6405333162071558]], "bias_hidden": [0.1061853593265526, 1.0847194840568148, -0.3543639971337439, -2.4079384784098674, 0.13517565244417848, -0.07315257264136968, 0.30880597600947063, -1.518663557621957, -0.03683500892720381, -1.1039377473386978], "bias_output": [1.578518108594739, -0.00948339621956542, 0.6145028253647847], "current_score": 222, "best_score": 0}, {"id": "Player 8761", "weights_input_hidden": [[-0.46622380043466016, -0.9906617809201327, 0.4577405104413002, 0.2019316078991108, 1.252739489679839, 0.7199295235935025, 1.3958253941407148, -0.004757556879493502, -1.1264648932002463, 1.3487969910153157], [2.353522434229982, 2.8093477698636513, -0.8430358854379892, -1.436752879704038, -0.091755226495988, -0.05581224188753954, -0.23030358053385533, -1.3617855954396427, 1.706811273356568, -1.243429048994944], [-0.6436533032033521, -0.2956797080680193, -0.04952274119578026, 0.2810241165780899, -0.6840655403021124, -0.09374576333896502, 0.18990688597653857, 1.084701115020838, 0.40360718749928115, 0.6058721451262374], [1.9117385726753822, -0.6260157179355571, -0.41900535032191333, -0.18163317860436792, 1.5114095044260925, 0.6437508213866677, 0.6254738091050421, 1.5114388233834668, 1.2079912735252318, -0.11279481356766775], [-0.8202818821607278, 0.04274722395666077, 1.3298812251312104, 0.4398834111568669, -0.04666619464671873, 2.598446849352539, -1.5235521682714295, -1.1934175199227806, -0.869142226881601, 2.895522954191282]], "weights_hidden_output": [[1.2499463551765935, -0.9463596276119457, 1.5262038684818937], [-0.3450991544956926, -0.16544941312015835, -0.5252128363529411], [-0.06600082100656346, -0.29147763325034537, -0.4005616377937617], [0.2783287335262348, 0.7736128778137434, 0.918150042967462], [-1.0469054750536395, -0.3507122773310683, 0.9474180404871081], [0.9502767225386242, -0.0731149730837603, 0.6821101729138668], [-0.6141322480639746, -0.08463806403858311, 1.0009791223929896], [1.1038754580306238, -0.31068210850471734, 0.026256769742169082], [0.2453452831932583, 2.750258862415533, -0.6085121167250104], [-0.8368022905493034, -0.20751893831838245, 1.6405333162071558]], "bias_hidden": [0.1061853593265526, 1.0847194840568148, -0.3543639971337439, -2.4079384784098674, 0.13517565244417848, -0.026143758107746523, 0.30880597600947063, -1.4408531919554948, -0.03683500892720381, -1.1039377473386978], "bias_output": [1.6750376778386407, -0.00948339621956542, 0.6149328230380301], "current_score": 117, "best_score": 0}, {"id": "Player 8762", "weights_input_hidden": [[-0.46622380043466016, -1.0234322968754332, 1.0330486130417043, 0.2019316078991108, 1.252739489679839, 0.2333214366766371, 1.3958253941407148, 0.09743089902043815, -1.1264648932002463, 1.3487969910153157], [2.353522434229982, 2.6260378452804725, -0.8430358854379892, -1.436752879704038, -0.091755226495988, -0.05581224188753954, 0.5649444847453262, -2.231056135655767, 1.6190870454076656, -1.1110496389867224], [-0.702982741458736, -0.2242613119857922, -0.04952274119578026, 0.2308319599691685, -0.6840655403021124, -0.09374576333896502, 0.18807473991109105, 1.084701115020838, 0.4078312847460411, 0.6058721451262374], [1.7544270881528854, 0.9385698800950733, -0.41900535032191333, -0.17934094916625276, 1.5114095044260925, 0.31905601817963475, 1.2702051430955201, 1.5114388233834668, 1.2079912735252318, -0.11279481356766775], [-0.8202818821607278, 0.04274722395666077, 1.3298812251312104, 0.7437329604387133, -0.04666619464671873, 1.4099489042401872, -1.5235521682714295, -2.2234209535276763, -0.869142226881601, 2.766981443287153]], "weights_hidden_output": [[1.2499463551765935, -0.8896201852762371, -1.2006428610437059], [-0.3450991544956926, -0.8845077020588166, -0.5997257314375668], [-0.06600082100656346, -0.3133193997781188, -0.4005616377937617], [0.2783287335262348, 0.7368360861733584, 0.918150042967462], [-0.9271256606901802, -0.3507122773310683, 0.9474180404871081], [0.9502767225386242, -0.0731149730837603, 0.6821101729138668], [-0.7316638005812806, -0.08838047401774465, 1.0009791223929896], [0.3664017432384805, -0.31068210850471734, -0.012364429324220815], [0.2453452831932583, 2.750258862415533, -0.6085121167250104], [-0.8989056074987146, -0.20759879317378285, 1.6405333162071558]], "bias_hidden": [0.1061853593265526, 1.0847194840568148, -0.3543639971337439, -2.4079384784098674, 0.13517565244417848, -0.07315257264136968, 0.4218739018709374, -1.518663557621957, -0.03683500892720381, -1.1039377473386978], "bias_output": [1.578518108594739, -0.00948339621956542, 0.6145028253647847], "current_score": 55, "best_score": 0}, {"id": "Player 8763", "weights_input_hidden": [[-0.46622380043466016, -1.095941527630038, 1.7153190822854187, 0.2019316078991108, -0.3410202881267985, 0.2333214366766371, 1.3958253941407148, 0.09743089902043815, -1.1264648932002463, 1.3487969910153157], [2.5560013835915276, 2.6260378452804725, -0.8430358854379892, -1.436752879704038, -0.091755226495988, -0.05581224188753954, 0.2934547600263279, -1.3617855954396427, 1.706811273356568, -1.1096653016277342], [-0.6703212980250259, -0.2242613119857922, -0.04952274119578026, 0.23250488360230914, -0.6840655403021124, -0.09374576333896502, -0.6335818412136526, 0.9937606954925995, 0.4078312847460411, 0.6058721451262374], [1.7544270881528854, -0.6260157179355571, -0.41900535032191333, -0.18163317860436792, 1.5114095044260925, 0.6437508213866677, 0.00105969021840506, 1.5114388233834668, 1.2079912735252318, -0.11279481356766775], [-0.7013780623599634, 0.04274722395666077, 1.3298812251312104, 0.597847098534998, -2.424407158951214, 2.5487434438408583, -1.4155515277899964, -2.372558590534586, -0.869142226881601, 2.8355887238168793]], "weights_hidden_output": [[1.38687688336165, -0.7590084486057875, -1.274732595547251], [-0.3450991544956926, 0.34067529456075474, -0.5252128363529411], [-0.11964758433984868, -0.3176503512082513, 0.8024158325702836], [0.28290968856669374, 0.7368360861733584, 0.918150042967462], [-0.9271256606901802, -0.4775563050383459, 1.014553859652603], [0.9502767225386242, -0.0731149730837603, 0.6821101729138668], [-0.5222097385458684, -0.08838047401774465, 0.9372195846823799], [1.8445112536080035, -0.31068210850471734, 1.4310010372745523], [1.4865311523085902, 2.3269302512358583, -0.6085121167250104], [-0.8989056074987146, -0.20751893831838245, 1.6405333162071558]], "bias_hidden": [0.1061853593265526, 1.0847194840568148, 0.18377267134628242, -2.4079384784098674, 0.13517565244417848, -0.07315257264136968, 0.30880597600947063, -1.518663557621957, -0.03683500892720381, -1.1039377473386978], "bias_output": [1.578518108594739, -0.04396775291370779, 0.48976272309037905], "current_score": 47, "best_score": 0}, {"id": "Player 8764", "weights_input_hidden": [[0.1897953575984328, -0.9906617809201327, 0.44992768533806926, 0.2019316078991108, 1.252739489679839, 0.2333214366766371, 1.3958253941407148, -0.004757556879493502, -1.2028492227654426, 1.3487969910153157], [2.3981179281949383, 2.6260378452804725, -0.8430358854379892, -0.4920360382337663, -0.091755226495988, -0.05581224188753954, -0.22163801447284862, -1.3617855954396427, 1.706811273356568, -1.243429048994944], [-0.702982741458736, -1.0574769850668646, -0.04952274119578026, 0.2810241165780899, -0.6840655403021124, -0.09374576333896502, 1.3295741390650189, 0.9937606954925995, 0.4078312847460411, 0.5191760390469121], [1.7544270881528854, -0.6260157179355571, -0.41900535032191333, -0.18163317860436792, 1.5114095044260925, 0.6437508213866677, 1.2611323219459614, 1.5114388233834668, 1.2079912735252318, -0.11279481356766775], [-0.7013780623599634, 0.04274722395666077, 1.3298812251312104, 0.4398834111568669, -0.04666619464671873, 2.598446849352539, -1.4155515277899964, -1.1934175199227806, -0.869142226881601, 2.766981443287153]], "weights_hidden_output": [[1.2499463551765935, -0.8896201852762371, -1.099519067331202], [-0.3450991544956926, -0.8845077020588166, -0.5252128363529411], [-0.06600082100656346, -0.29147763325034537, 1.1916955381829142], [0.2783287335262348, 0.7368360861733584, 0.918150042967462], [-1.0469054750536395, -0.790724884279309, 0.9474180404871081], [0.8731819790608237, -0.0731149730837603, 1.775271791056901], [-0.7316638005812806, -0.08838047401774465, 1.1045154479671813], [0.3869120639839618, -0.31068210850471734, 0.026256769742169082], [0.2453452831932583, 2.750258862415533, -0.4361517078124077], [-0.8989056074987146, -1.0411954902794307, 1.6405333162071558]], "bias_hidden": [0.1061853593265526, 1.0847194840568148, 0.25137084986746544, -2.4079384784098674, 0.13517565244417848, -0.026143758107746523, 0.30880597600947063, -1.518663557621957, -0.03683500892720381, -1.094277123779954], "bias_output": [1.578518108594739, -0.00948339621956542, 0.6145028253647847], "current_score": 52, "best_score": 0}, {"id": "Player 8765", "weights_input_hidden": [[-0.4449177628814078, -0.9906617809201327, 1.0330486130417043, 0.2019316078991108, 1.1619913958989827, 0.2333214366766371, 1.3958253941407148, 0.09743089902043815, -1.357060274368535, 1.3487969910153157], [2.353522434229982, 2.6260378452804725, -0.8430358854379892, -0.4920360382337663, -0.091755226495988, -0.054909287144651035, -0.23030358053385533, -1.3617855954396427, 1.5721464718884286, -1.1096653016277342], [-0.6703212980250259, -0.2675514980572742, -0.04952274119578026, 0.2810241165780899, -0.6840655403021124, 0.008648635479499761, 0.18990688597653857, 0.9937606954925995, 0.4078312847460411, 0.6058721451262374], [1.7544270881528854, 0.9385698800950733, -0.41900535032191333, -0.18163317860436792, 1.284525471525472, -0.34549449951157796, -0.09097726919736222, 1.5114388233834668, 1.2079912735252318, -0.018758837946036125], [-0.7013780623599634, 0.04274722395666077, 1.3298812251312104, 0.597847098534998, -0.04666619464671873, 2.598446849352539, -1.5235521682714295, -1.92066421186702, -0.7513987354038407, 2.766981443287153]], "weights_hidden_output": [[1.2499463551765935, -0.8896201852762371, -1.2006428610437059], [-1.5385588734655906, -0.7663329932905071, -0.5252128363529411], [-0.06600082100656346, -0.3176503512082513, -0.4005616377937617], [0.2783287335262348, 0.8122927606986527, 0.918150042967462], [-0.9271256606901802, -0.34833798037624547, 0.9474180404871081], [0.8731819790608237, -0.04197052831474063, 2.316615831762046], [-0.6141322480639746, -0.03442156325246673, 1.0009791223929896], [1.8445112536080035, -0.31068210850471734, -0.012364429324220815], [0.2453452831932583, 1.5260056377968723, -0.6085121167250104], [-0.8989056074987146, -0.20751893831838245, 1.6405333162071558]], "bias_hidden": [0.1061853593265526, 1.0190923026381025, 0.25137084986746544, -2.4079384784098674, 0.13517565244417848, -0.4974538598862267, 0.3537277250793995, -1.4546312702908744, -0.03683500892720381, -1.1480159596966268], "bias_output": [1.578518108594739, -1.4376262232448798, 0.48976272309037905], "current_score": 53, "best_score": 0}, {"id": "Player 8766", "weights_input_hidden": [[-0.46622380043466016, -0.9906617809201327, 1.0330486130417043, 0.2019316078991108, 1.1456808420615323, 0.2333214366766371, 1.3958253941407148, -0.004757556879493502, -1.2734162010967003, 1.5234596363802237], [2.5560013835915276, 2.6260378452804725, -0.8430358854379892, 2.257143699676996, -0.091755226495988, -0.05581224188753954, -0.23030358053385533, -1.3617855954396427, 1.706811273356568, -1.1096653016277342], [-0.6703212980250259, -0.29608884860053125, 0.5989286371449625, 0.295445135068156, -0.6840655403021124, -0.09374576333896502, 0.18990688597653857, 1.084701115020838, 0.4078312847460411, 0.6058721451262374], [1.7544270881528854, -0.6260157179355571, -0.41900535032191333, -0.18163317860436792, 1.5114095044260925, 0.6437508213866677, 0.00105969021840506, 1.5114388233834668, 1.2079912735252318, -0.11279481356766775], [-0.7013780623599634, 0.04274722395666077, 1.3298812251312104, 0.597847098534998, -0.04666619464671873, 2.598446849352539, -1.4155515277899964, -1.3348115126605207, -0.869142226881601, 2.766981443287153]], "weights_hidden_output": [[1.2499463551765935, -0.9949852327509163, -1.2006428610437059], [-0.3450991544956926, -0.8845077020588166, -0.5639791923702826], [-0.06600082100656346, -0.29147763325034537, 1.1916955381829142], [0.2783287335262348, 0.7368360861733584, 0.918150042967462], [-0.9271256606901802, -0.790724884279309, 0.6588185875915084], [0.9502767225386242, -0.0731149730837603, 0.6821101729138668], [-0.7316638005812806, -0.09656379185458135, 1.0009791223929896], [0.3664017432384805, 2.874737686448049, 0.026256769742169082], [0.2453452831932583, 2.750258862415533, -0.6085121167250104], [-0.8989056074987146, -0.2158947877757637, 1.6405333162071558]], "bias_hidden": [0.2283357738089792, 1.0847194840568148, -0.3543639971337439, -2.4079384784098674, 0.13517565244417848, 1.1026280153450432, 0.30880597600947063, -1.739850302833761, -0.03683500892720381, -1.1039377473386978], "bias_output": [1.578518108594739, -0.00948339621956542, 0.48976272309037905], "current_score": 116, "best_score": 0}, {"id": "Player 8767", "weights_input_hidden": [[-0.46622380043466016, 0.4708543376201735, 1.0330486130417043, 0.2019316078991108, 1.252739489679839, 0.2333214366766371, 1.3958253941407148, 0.09743089902043815, -1.2734162010967003, 1.6587696482460785], [2.353522434229982, 2.6260378452804725, -0.8430358854379892, -1.436752879704038, -0.14122877475648832, -0.040907553136587387, -0.23030358053385533, -1.3617855954396427, 1.706811273356568, -1.243429048994944], [-0.702982741458736, -0.2675514980572742, -0.04952274119578026, 0.295445135068156, -0.6840655403021124, -0.09374576333896502, 0.18990688597653857, 1.049268589558506, 0.4078312847460411, 0.6058721451262374], [1.7544270881528854, 0.9385698800950733, -0.4806390397792816, -0.18163317860436792, 1.5114095044260925, 0.6437508213866677, 0.01488130214116741, 1.53503350216688, 1.2079912735252318, -0.11279481356766775], [-0.7013780623599634, 0.04274722395666077, 1.3298812251312104, 0.597847098534998, -0.05060424002869854, 2.598446849352539, -1.4155515277899964, -1.92066421186702, -0.869142226881601, 2.766981443287153]], "weights_hidden_output": [[1.1732541011288793, -0.8896201852762371, -1.2006428610437059], [-0.3450991544956926, -0.8845077020588166, -0.5252128363529411], [-0.06600082100656346, -0.29147763325034537, -0.4005616377937617], [0.2783287335262348, 0.8122927606986527, 0.6975554428900681], [-0.9271256606901802, -0.3507122773310683, 0.9474180404871081], [0.9502767225386242, -0.0731149730837603, 0.6821101729138668], [-0.6141322480639746, -0.03442156325246673, 1.0009791223929896], [1.8445112536080035, -0.31068210850471734, -0.012364429324220815], [0.2453452831932583, 2.750258862415533, -0.4361517078124077], [-0.8989056074987146, -0.20751893831838245, 1.6405333162071558]], "bias_hidden": [0.2283357738089792, 1.0847194840568148, -0.3543639971337439, -2.4079384784098674, 0.13517565244417848, -0.07315257264136968, 0.39732392111967935, -1.518663557621957, 0.07448829866014944, -1.1039377473386978], "bias_output": [1.8769234287633054, -0.00948339621956542, 0.6145028253647847], "current_score": 47, "best_score": 0}, {"id": "Player 8768", "weights_input_hidden": [[-0.46622380043466016, -0.9906617809201327, 0.5601461496629032, 0.2019316078991108, 1.252739489679839, 0.2333214366766371, 1.3958253941407148, 0.09743089902043815, -1.1264648932002463, 1.6587696482460785], [2.353522434229982, 2.6260378452804725, -0.8430358854379892, -0.4931412182149899, -0.091755226495988, -0.05581224188753954, -0.23030358053385533, -1.3617855954396427, 1.706811273356568, -1.1096653016277342], [-0.702982741458736, -0.21059526659076044, 0.6369849099888579, 0.2810241165780899, -0.6840655403021124, -0.09374576333896502, 0.18807473991109105, 1.084701115020838, 0.4078312847460411, 0.6058721451262374], [1.7544270881528854, 0.9385698800950733, -0.41900535032191333, -0.18163317860436792, 1.5114095044260925, 0.6437508213866677, 1.2702051430955201, 1.5114388233834668, 1.2079912735252318, -0.11279481356766775], [-0.7013780623599634, 0.11104827174527457, 1.3298812251312104, 0.597847098534998, -0.04666619464671873, 2.598446849352539, -1.4155515277899964, -1.92066421186702, -0.869142226881601, 2.766981443287153]], "weights_hidden_output": [[1.2499463551765935, -0.9949852327509163, -1.2006428610437059], [-0.3889480427495725, -0.8845077020588166, -0.5252128363529411], [-0.06600082100656346, -0.29147763325034537, -0.4005616377937617], [0.2783287335262348, 0.7368360861733584, 0.918150042967462], [-0.9271256606901802, -0.8401781341614311, 0.9474180404871081], [0.9440229169544245, -1.4566821539003723, 0.6821101729138668], [-0.7316638005812806, -0.08838047401774465, 1.0009791223929896], [1.1038754580306238, -0.31068210850471734, 0.026256769742169082], [0.2453452831932583, 2.750258862415533, -0.4361517078124077], [-0.8989056074987146, -0.20751893831838245, 1.6405333162071558]], "bias_hidden": [0.2283357738089792, 1.0847194840568148, -0.3543639971337439, -2.4079384784098674, 0.13517565244417848, -0.07315257264136968, 0.30880597600947063, -1.518663557621957, -0.03683500892720381, -1.1039377473386978], "bias_output": [1.578518108594739, -0.00948339621956542, 0.6145028253647847], "current_score": 56, "best_score": 0}, {"id": "Player 8769", "weights_input_hidden": [[-0.46622380043466016, -0.9906617809201327, 0.3999586743218957, 0.2019316078991108, -0.3410202881267985, 0.2333214366766371, 0.7192999612612252, 0.09743089902043815, -1.357060274368535, 1.3487969910153157], [2.4865323295616015, 2.6260378452804725, -0.8430358854379892, -0.4920360382337663, -0.0933014611184798, -0.05581224188753954, -0.2625888655942461, -1.3617855954396427, 1.7649503907418493, -1.1096653016277342], [-0.6703212980250259, -0.2242613119857922, -0.04952274119578026, 0.2810241165780899, -0.6840655403021124, -0.09374576333896502, -0.5252756049190794, 1.084701115020838, 0.4078312847460411, 0.6058721451262374], [1.6795752340141006, -0.6260157179355571, -0.41900535032191333, -0.18163317860436792, 1.5114095044260925, 0.6437508213866677, 0.00105969021840506, 1.5114388233834668, 1.2079912735252318, -0.11279481356766775], [-0.7013780623599634, 0.11104827174527457, 1.3298812251312104, 0.5458577518839257, -0.04666619464671873, 2.5487434438408583, -1.4155515277899964, -2.0596442406935775, -0.869142226881601, 2.766981443287153]], "weights_hidden_output": [[1.38687688336165, -0.7590084486057875, -1.2006428610437059], [-0.3450991544956926, 0.34067529456075474, -0.5252128363529411], [0.47449583770155335, -0.3176503512082513, -0.4005616377937617], [0.28290968856669374, 0.8122927606986527, 0.918150042967462], [-0.9271256606901802, -0.4775563050383459, 0.9474180404871081], [0.9502767225386242, -0.0731149730837603, 1.775271791056901], [-0.5222097385458684, -0.08838047401774465, 1.0009791223929896], [1.8445112536080035, -0.31068210850471734, 0.026256769742169082], [0.2453452831932583, 2.750258862415533, -0.4361517078124077], [-0.8443338074893725, -0.20751893831838245, 1.6405333162071558]], "bias_hidden": [0.23273179818205464, 0.9456959173658989, -0.3543639971337439, -2.4079384784098674, 0.13517565244417848, -0.1825841990542888, 0.30880597600947063, -1.518663557621957, -0.03683500892720381, -1.1039377473386978], "bias_output": [1.578518108594739, -0.00948339621956542, 0.48976272309037905], "current_score": 115, "best_score": 0}, {"id": "Player 8770", "weights_input_hidden": [[-0.46622380043466016, -1.095941527630038, 0.44448142228130827, 0.2019316078991108, 1.1456808420615323, 0.7199295235935025, 1.3958253941407148, 0.09743089902043815, -1.357060274368535, 1.4049442155038694], [2.353522434229982, 2.590530203544281, 0.8212224843906145, -1.436752879704038, -0.0933014611184798, 1.3613128079319927, -0.23030358053385533, -0.038491894967352176, -0.15392120130628764, -1.243429048994944], [-0.6703212980250259, -0.7478141228000176, -0.04952274119578026, 0.2308319599691685, -0.5057487283318847, -0.1026155907535482, 0.18990688597653857, 0.9958250861725451, 0.4078312847460411, 0.5086401836123835], [-0.734777798465167, -0.6260157179355571, -0.41900535032191333, -0.18163317860436792, 1.6529923320805913, 0.6437508213866677, 0.42963204483495876, 1.5114388233834668, 1.3166803920232113, -0.11279481356766775], [-0.8366834307387266, 0.11104827174527457, 1.3298812251312104, 0.4398834111568669, -0.04700077032274879, 2.760815250742603, -1.4155515277899964, -1.1934175199227806, 1.3201337194974867, 1.130801525803824]], "weights_hidden_output": [[1.2499463551765935, -0.8896201852762371, -1.2006428610437059], [-0.3450991544956926, -0.16544941312015835, -0.5284823446319564], [0.031078147912369958, -0.3176503512082513, -0.4005616377937617], [0.2783287335262348, 0.7368360861733584, 0.6975554428900681], [-0.9271256606901802, -0.3507122773310683, 1.0275669129183926], [0.8731819790608237, -0.0731149730837603, 2.2540284773925134], [-0.6141322480639746, -0.08838047401774465, 1.1045154479671813], [0.3664017432384805, -0.31068210850471734, -0.12976514627451644], [0.2453452831932583, 2.750258862415533, -0.6085121167250104], [-0.8989056074987146, -0.20751893831838245, 1.6405333162071558]], "bias_hidden": [0.2283357738089792, 1.0847194840568148, -0.3543639971337439, -2.4079384784098674, 0.13517565244417848, -0.07315257264136968, 0.30880597600947063, -1.518663557621957, -0.03683500892720381, -1.0976409286028195], "bias_output": [1.578518108594739, -1.3471197763121532, 0.48976272309037905], "current_score": 54, "best_score": 0}, {"id": "Player 8771", "weights_input_hidden": [[-0.4449177628814078, 0.4708543376201735, 0.5601461496629032, 1.8453234530716092, 1.1619913958989827, 0.6277307069449158, 1.5516926505603663, 0.09743089902043815, -1.2734162010967003, 1.3487969910153157], [2.289047983436614, 2.6260378452804725, -0.8430358854379892, -1.436752879704038, -0.0933014611184798, -0.054909287144651035, -0.23030358053385533, -1.3617855954396427, -0.15392120130628764, -1.243429048994944], [-0.6703212980250259, -0.2956797080680193, -0.04952274119578026, 0.2196850678109169, -0.615040026106996, 0.008648635479499761, 0.18990688597653857, 0.9937606954925995, 0.4078312847460411, 0.5191760390469121], [1.6795752340141006, -0.6260157179355571, -0.3596574119054199, -0.22113114507357784, 1.284525471525472, -0.34549449951157796, -0.09097726919736222, 1.619126366690675, 1.3166803920232113, -0.11279481356766775], [-0.8202818821607278, 0.11104827174527457, 1.3298812251312104, 0.597847098534998, -0.04666619464671873, 2.598446849352539, -1.4155515277899964, -1.1934175199227806, 1.3201337194974867, 2.766981443287153]], "weights_hidden_output": [[1.2499463551765935, -0.8896201852762371, -1.099519067331202], [0.9684101458651269, -0.7663329932905071, -0.5252128363529411], [-0.06600082100656346, -0.3176503512082513, -0.4005616377937617], [0.2947734201223065, 0.7368360861733584, -0.4651846271895411], [-0.9271256606901802, -0.4325081706126171, 0.645459710335655], [0.8731819790608237, -0.0731149730837603, 2.316615831762046], [-0.6141322480639746, -0.03442156325246673, 1.1121652748096171], [0.3664017432384805, -0.31068210850471734, -0.12976514627451644], [0.2453452831932583, 2.3269302512358583, -0.6085121167250104], [-0.8989056074987146, -0.20751893831838245, 1.6405333162071558]], "bias_hidden": [0.22050380794121455, 1.0847194840568148, -0.3543639971337439, -2.4079384784098674, 0.13517565244417848, 0.0026251977165080015, 0.30880597600947063, -1.518663557621957, -0.03683500892720381, -1.1480159596966268], "bias_output": [1.578518108594739, -1.4376262232448798, 0.6149328230380301], "current_score": 47, "best_score": 0}, {"id": "Player 8772", "weights_input_hidden": [[0.6974272519622602, 0.05932740341483632, 0.44448142228130827, 0.2019316078991108, 0.9847708920451563, 0.6259880493655395, 1.5516926505603663, 0.09743089902043815, -1.2734162010967003, 1.3487969910153157], [2.353522434229982, 2.6260378452804725, -0.8430358854379892, -0.45252095035061773, -0.0933014611184798, -0.05581224188753954, -0.23030358053385533, -1.2356437391586717, 1.7649503907418493, -1.243429048994944], [-0.6436533032033521, -0.2956797080680193, -0.04952274119578026, 0.5559955843405522, -0.6840655403021124, -0.1026155907535482, 0.18990688597653857, 0.9937606954925995, 0.4078312847460411, 0.5191760390469121], [1.7544270881528854, -0.6260157179355571, -0.41900535032191333, -0.18163317860436792, 1.5114095044260925, 0.5786535441534544, 0.42963204483495876, 1.5114388233834668, 1.3166803920232113, -0.11279481356766775], [-0.8214766168470534, 0.11104827174527457, 1.3298812251312104, 0.597847098534998, -0.04666619464671873, 2.760815250742603, -1.3986312610935288, -1.1934175199227806, 1.3201337194974867, 2.766981443287153]], "weights_hidden_output": [[1.2499463551765935, -0.8896201852762371, -1.099519067331202], [-0.3450991544956926, 0.2393201292073851, -0.5997257314375668], [-1.3861646243196304, -0.29147763325034537, -0.4005616377937617], [0.7183772478364447, 0.2543941046438194, 0.6975554428900681], [-0.7270597055171732, -0.3507122773310683, 0.645459710335655], [0.8731819790608237, -0.0731149730837603, 1.775271791056901], [1.161197761780075, -0.08463806403858311, 0.9404599463079869], [0.3664017432384805, -0.31068210850471734, -0.012364429324220815], [0.2453452831932583, 2.3269302512358583, -0.6085121167250104], [-0.8989056074987146, -0.20751893831838245, 1.6405333162071558]], "bias_hidden": [0.19596578445849175, 1.0847194840568148, -0.3543639971337439, -2.4079384784098674, 0.13517565244417848, -0.11313309957858553, 0.30880597600947063, -1.4918318376177029, -0.03683500892720381, -1.0976409286028195], "bias_output": [1.578518108594739, 0.21681455886455375, 0.526192724586159], "current_score": 48, "best_score": 0}, {"id": "Player 8773", "weights_input_hidden": [[-0.46622380043466016, -1.095941527630038, 0.5601461496629032, -1.20066463670141, -0.16440536992113075, 0.2333214366766371, 1.5516926505603663, 0.09743089902043815, -1.4367937366403258, 1.3487969910153157], [2.353522434229982, 2.590530203544281, -0.7405812140755927, -1.4514329638728285, -0.091755226495988, -0.05581224188753954, -0.23030358053385533, -1.3617855954396427, 1.7649503907418493, -1.243429048994944], [-0.6703212980250259, -0.2956797080680193, -0.04952274119578026, 0.2196850678109169, -0.6840655403021124, -0.09374576333896502, 0.18990688597653857, 0.9937606954925995, 0.4078312847460411, 0.5191760390469121], [1.7544270881528854, -0.6260157179355571, -1.1555915218043626, -0.18432989064998748, 1.5114095044260925, 0.5336227426815177, 0.42963204483495876, 1.5709211608819553, 1.2079912735252318, -0.9842528705521637], [-1.0965687824423782, 0.11104827174527457, 1.3298812251312104, 0.5226540009182605, -0.04666619464671873, 2.598446849352539, -1.4155515277899964, -1.1934175199227806, -0.7301951863647683, 2.766981443287153]], "weights_hidden_output": [[-0.4703043151397191, -0.8689614183133413, -1.9516501174752736], [-0.3450991544956926, -0.8845077020588166, -0.5997257314375668], [-0.06600082100656346, -0.3176503512082513, -0.4921282132616055], [0.2783287335262348, 0.27713187831926606, -0.4651846271895411], [-0.865923473711377, 0.5553826459416713, 0.7368800918350987], [0.8731819790608237, -0.0731149730837603, 1.775271791056901], [-0.6141322480639746, -0.08463806403858311, 1.1045154479671813], [0.3664017432384805, -0.31068210850471734, -0.12976514627451644], [0.2453452831932583, 2.750258862415533, -0.4848545171270424], [-0.8989056074987146, -0.20751893831838245, 1.6405333162071558]], "bias_hidden": [0.19596578445849175, 1.0775767653073294, -0.4820197574854651, -2.4079384784098674, -0.43848150850031004, -0.11313309957858553, 0.30880597600947063, -1.518663557621957, -0.03683500892720381, -1.0976409286028195], "bias_output": [1.578518108594739, -0.05628791762282423, 0.48976272309037905], "current_score": 47, "best_score": 0}, {"id": "Player 8774", "weights_input_hidden": [[0.7191880545784336, -1.095941527630038, 0.4577405104413002, 0.2019316078991108, 1.1456808420615323, 0.7199295235935025, 1.5516926505603663, 0.09743089902043815, -1.2734162010967003, 1.3487969910153157], [2.353522434229982, 2.590530203544281, -0.8430358854379892, -0.4920360382337663, -0.0933014611184798, -0.05581224188753954, -0.23030358053385533, -1.3617855954396427, -0.15392120130628764, -1.243429048994944], [-0.6436533032033521, -0.2675514980572742, -0.04952274119578026, 0.295445135068156, -0.6840655403021124, -0.09374576333896502, 0.18990688597653857, 0.9937606954925995, 0.4078312847460411, 0.5191760390469121], [1.6795752340141006, -0.6260157179355571, -0.41900535032191333, 0.37759682091532665, 1.4718932077257274, 0.6437508213866677, 0.6254738091050421, 1.5114388233834668, 1.3166803920232113, -0.11279481356766775], [-0.8366834307387266, 0.11104827174527457, 1.3298812251312104, 0.4398834111568669, -0.052175231635878457, 2.598446849352539, -1.5235521682714295, -2.1044856683471487, 1.3201337194974867, 2.895522954191282]], "weights_hidden_output": [[1.2499463551765935, -0.8896201852762371, -1.099519067331202], [-0.13080637967859873, -0.16544941312015835, -0.5997257314375668], [-0.06600082100656346, -0.3176503512082513, -0.4005616377937617], [0.2783287335262348, 0.7736128778137434, -0.4651846271895411], [-0.7370066841281546, -0.4325081706126171, 1.014553859652603], [0.5933627469862182, -0.0731149730837603, 0.6821101729138668], [-0.5413561530662073, -0.08463806403858311, 0.9092103919815883], [1.8445112536080035, -0.32460007582200495, -0.12976514627451644], [0.1180414032455459, 2.750258862415533, -0.961251009529377], [-0.8989056074987146, -0.20751893831838245, 1.6405333162071558]], "bias_hidden": [0.23320800049100948, 1.0847194840568148, -0.3543639971337439, -2.4079384784098674, 0.13517565244417848, -0.11313309957858553, 0.30880597600947063, -1.518663557621957, -0.03683500892720381, -1.0976409286028195], "bias_output": [1.578518108594739, -0.04396775291370779, 0.6149328230380301], "current_score": 48, "best_score": 0}, {"id": "Player 8775", "weights_input_hidden": [[0.7191880545784336, -1.095941527630038, 0.3999586743218957, 0.2019316078991108, 0.9847708920451563, 0.8053810123353, 0.7192999612612252, 0.09743089902043815, -1.357060274368535, 1.3487969910153157], [2.353522434229982, 2.590530203544281, -0.8430358854379892, -1.436752879704038, -0.0933014611184798, -0.05581224188753954, 0.2934547600263279, -1.3617855954396427, 1.7649503907418493, -1.1096653016277342], [-0.6436533032033521, -0.277184415880843, -0.04952274119578026, 0.23250488360230914, -0.6840655403021124, -0.09374576333896502, 0.18990688597653857, 0.9937606954925995, 0.4078312847460411, 0.5322436071888247], [1.6795752340141006, -0.6260157179355571, -1.1555915218043626, -0.24118483678850725, 1.5114095044260925, 0.6437508213866677, 0.00105969021840506, 1.5114388233834668, 1.3166803920232113, -0.11279481356766775], [-0.8202818821607278, 0.11104827174527457, 1.3298812251312104, 0.4398834111568669, -0.04666619464671873, 2.598446849352539, -1.4155515277899964, -1.1934175199227806, 1.3201337194974867, 2.895522954191282]], "weights_hidden_output": [[1.2499463551765935, -0.7534832945573391, -1.274732595547251], [-0.3450991544956926, 0.34067529456075474, -0.48118676502951047], [-0.11964758433984868, -0.3176503512082513, -0.4005616377937617], [0.2783287335262348, 0.7368360861733584, 0.6975554428900681], [-0.9271256606901802, -0.4325081706126171, 0.645459710335655], [0.8731819790608237, -0.0731149730837603, 2.2540284773925134], [-0.5372557938388742, -0.08463806403858311, 0.9372195846823799], [1.8445112536080035, -0.31068210850471734, 1.4310010372745523], [0.2453452831932583, 2.750258862415533, -0.6085121167250104], [-0.8989056074987146, -0.20751893831838245, 1.6405333162071558]], "bias_hidden": [0.2283357738089792, 1.0847194840568148, -0.3543639971337439, -2.4079384784098674, 0.13517565244417848, -0.1825841990542888, 0.30880597600947063, -1.518663557621957, -0.03683500892720381, -1.1039377473386978], "bias_output": [1.578518108594739, -0.05628791762282423, 0.48976272309037905], "current_score": 48, "best_score": 0}, {"id": "Player 8776", "weights_input_hidden": [[0.7191880545784336, -1.095941527630038, 0.44448142228130827, 0.2019316078991108, 1.3399623994267549, 0.6259880493655395, 1.5516926505603663, 0.09743089902043815, -1.2734162010967003, -0.21106761985053732], [2.353522434229982, 2.590530203544281, -0.8430358854379892, -1.436752879704038, -0.0933014611184798, -0.05581224188753954, -0.23030358053385533, -1.3617855954396427, 1.7649503907418493, -1.243429048994944], [-0.6703212980250259, -0.2956797080680193, -0.04952274119578026, 0.295445135068156, -0.6840655403021124, -0.09374576333896502, 0.18990688597653857, 0.9937606954925995, 0.4078312847460411, 0.5191760390469121], [1.7544270881528854, -0.6260157179355571, -0.41900535032191333, -0.18163317860436792, 1.5114095044260925, 0.5786535441534544, 0.4751331548231022, 1.5834807058884708, 1.7967377961205362, -0.11279481356766775], [-0.8214766168470534, 0.11104827174527457, 1.3298812251312104, 0.597847098534998, 0.04455820242237231, 2.598446849352539, -1.3986312610935288, -1.92066421186702, -0.869142226881601, 2.766981443287153]], "weights_hidden_output": [[1.3810166481274748, -0.8896201852762371, -1.099519067331202], [-0.3450991544956926, -0.16544941312015835, -0.5284823446319564], [-1.3861646243196304, -0.3176503512082513, -0.4005616377937617], [0.2783287335262348, 0.2543941046438194, 0.6975554428900681], [-0.7270597055171732, -0.3507122773310683, 0.9512153574720961], [0.7840956140310539, -0.0761908849626852, 1.775271791056901], [0.9968082145284775, -0.08838047401774465, 1.1045154479671813], [0.3664017432384805, -0.31068210850471734, -0.12976514627451644], [0.2453452831932583, 2.750258862415533, -0.6085121167250104], [0.4604822826072703, -0.20751893831838245, 1.6405333162071558]], "bias_hidden": [0.19596578445849175, 1.0847194840568148, -0.3543639971337439, -2.4079384784098674, 0.13517565244417848, -0.07315257264136968, 0.30880597600947063, -1.518663557621957, -0.03683500892720381, -1.0976409286028195], "bias_output": [1.578518108594739, 0.2062639527911399, 0.6149328230380301], "current_score": 47, "best_score": 0}, {"id": "Player 8777", "weights_input_hidden": [[-0.46622380043466016, -0.9906617809201327, 0.5601461496629032, 0.2019316078991108, 0.9847708920451563, 0.7199295235935025, 1.3958253941407148, 0.11009746728237124, -1.2734162010967003, 1.3487969910153157], [2.353522434229982, 2.6260378452804725, -0.8430358854379892, -1.436752879704038, -0.0933014611184798, -0.05581224188753954, -0.23030358053385533, -2.231056135655767, 1.6190870454076656, -1.1096653016277342], [-0.6436533032033521, -0.2956797080680193, -0.04952274119578026, 0.22665933469882177, -0.6840655403021124, -0.09374576333896502, 0.18990688597653857, 0.9937606954925995, 0.4078312847460411, 0.6058721451262374], [1.7544270881528854, -0.7243676871410707, -0.41900535032191333, -0.18163317860436792, 1.5114095044260925, 0.31905601817963475, 1.2702051430955201, 1.5114388233834668, 1.2079912735252318, -0.11279481356766775], [-0.8366834307387266, 0.04274722395666077, 1.3298812251312104, 0.4398834111568669, -0.04666619464671873, 1.4099489042401872, -1.4155515277899964, -2.2234209535276763, 1.3853534397191234, 2.895522954191282]], "weights_hidden_output": [[1.2499463551765935, -0.8896201852762371, 0.9688260891143037], [-0.3450991544956926, -0.16544941312015835, -0.5997257314375668], [-0.06600082100656346, -0.3133193997781188, -0.4005616377937617], [0.2783287335262348, 0.7368360861733584, -0.4651846271895411], [-0.9271256606901802, -0.3507122773310683, 